{"learner":{"attributes":{"scikit_learn":"{\"n_estimators\": 50, \"objective\": \"reg:linear\", \"max_depth\": 5, \"learning_rate\": 0.1, \"verbosity\": null, \"booster\": null, \"tree_method\": null, \"gamma\": null, \"min_child_weight\": null, \"max_delta_step\": null, \"subsample\": null, \"colsample_bytree\": 0.3, \"colsample_bylevel\": null, \"colsample_bynode\": null, \"reg_alpha\": null, \"reg_lambda\": null, \"scale_pos_weight\": null, \"base_score\": null, \"missing\": NaN, \"num_parallel_tree\": null, \"kwargs\": {\"alpha\": 10}, \"random_state\": null, \"n_jobs\": null, \"monotone_constraints\": null, \"interaction_constraints\": null, \"importance_type\": \"gain\", \"gpu_id\": null, \"validate_parameters\": null, \"_estimator_type\": \"regressor\"}"},"feature_names":["season","holiday","workingday","weather","temp","atemp","humidity","windspeed","year","month","day","dayofweek","hour"],"feature_types":["int","int","int","int","float","float","int","float","int","int","int","int","int"],"gradient_booster":{"model":{"gbtree_model_param":{"num_trees":"50","size_leaf_vector":"0"},"tree_info":[0,0,0,0,0,0,0,0,0,0,0,0,0,0,0,0,0,0,0,0,0,0,0,0,0,0,0,0,0,0,0,0,0,0,0,0,0,0,0,0,0,0,0,0,0,0,0,0,0,0],"trees":[{"base_weights":[1.9113292E2,1.484971E2,2.9156717E2,9.911152E1,1.730557E2,2.759912E2,3.383959E2,8.549275E1,1.2520641E2,1.6119347E2,1.8546751E2,2.2840384E2,2.833418E2,3.3447528E2,4.4382352E2,6.006761E1,9.4826515E1,8.154032E1,1.299086E2,1.4614285E2,1.6827156E2,1.96996E2,1.4104282E2,1.6566936E2,2.4950867E2,2.658107E2,3.0550076E2,3.393996E2,2.7035226E2,1.10625E1,6.1102894E1,8.7110016E1,1.3108446E2,8.277049E1,-0E0,1.3685696E2,1.098185E2,1.5984224E2,1.3850641E2,1.7649113E2,1.5608447E2,2.1088257E2,1.7692369E2,1.2582089E2,1.5899692E2,1.7172882E2,3.2375E1,3.349107E2,2.3135274E2,3.0403766E2,2.4996548E2,3.1447546E2,2.8643347E2,3.0548636E2,3.4798096E2,3.1876785E2,1.7411765E2],"categories":[],"categories_nodes":[],"categories_segments":[],"categories_sizes":[],"default_left":[true,true,true,true,true,true,true,true,true,true,true,true,true,true,false,true,true,true,true,true,true,true,true,true,true,true,true,true,true,false,false,false,false,false,false,false,false,false,false,false,false,false,false,false,false,false,false,false,false,false,false,false,false,false,false,false,false],"id":0,"left_children":[1,3,5,7,9,11,13,15,17,19,21,23,25,27,-1,29,31,33,35,37,39,41,43,45,47,49,51,53,55,-1,-1,-1,-1,-1,-1,-1,-1,-1,-1,-1,-1,-1,-1,-1,-1,-1,-1,-1,-1,-1,-1,-1,-1,-1,-1,-1,-1],"loss_changes":[3.2586144E7,6.471248E6,1.556208E6,6.19766E5,4.92688E5,5.2796E5,7.6064E4,2.71122E5,1.12131E5,1.67748E5,8.59464E5,2.64329E5,4.86472E5,7.4552E4,0E0,1.473575E4,2.258945E5,5.681125E3,5.8861E4,3.7123E4,9.344E4,3.42908E5,7.608E4,4.247625E4,1.851E5,4.22416E5,1.4292E4,3.3548E4,1.4457525E5,0E0,0E0,0E0,0E0,0E0,0E0,0E0,0E0,0E0,0E0,0E0,0E0,0E0,0E0,0E0,0E0,0E0,0E0,0E0,0E0,0E0,0E0,0E0,0E0,0E0,0E0,0E0,0E0],"parents":[2147483647,0,0,1,1,2,2,3,3,4,4,5,5,6,6,7,7,8,8,9,9,10,10,11,11,12,12,13,13,15,15,16,16,17,17,18,18,19,19,20,20,21,21,22,22,23,23,24,24,25,25,26,26,27,27,28,28],"right_children":[2,4,6,8,10,12,14,16,18,20,22,24,26,28,-1,30,32,34,36,38,40,42,44,46,48,50,52,54,56,-1,-1,-1,-1,-1,-1,-1,-1,-1,-1,-1,-1,-1,-1,-1,-1,-1,-1,-1,-1,-1,-1,-1,-1,-1,-1,-1,-1],"split_conditions":[2.9925E1,1.62875E1,3.52275E1,1.4015E1,2.3105E1,3.0682499E1,5E-1,9.47E0,2.5E0,1.9317501E1,2.76525E1,5.5E0,1.15E1,4.12875E1,4.438235E1,2.6525002E0,1.65E1,5E-1,1.45E1,6.5E0,2.159E1,1.35E1,1.15E1,5E-1,8.5E0,3.1439999E1,3.2955E1,3.5985E1,8.5E0,1.10625E0,6.1102896E0,8.711001E0,1.3108446E1,8.277049E0,-0E0,1.3685697E1,1.098185E1,1.5984224E1,1.3850641E1,1.7649115E1,1.5608447E1,2.1088257E1,1.769237E1,1.2582089E1,1.5899692E1,1.7172882E1,3.2375E0,3.349107E1,2.3135275E1,3.0403767E1,2.499655E1,3.1447546E1,2.8643347E1,3.0548635E1,3.4798096E1,3.1876785E1,1.7411764E1],"split_indices":[5,5,5,5,5,5,1,5,10,5,5,10,10,5,0,5,10,1,10,10,5,10,10,1,10,5,5,5,10,0,0,0,0,0,0,0,0,0,0,0,0,0,0,0,0,0,0,0,0,0,0,0,0,0,0,0,0],"split_type":[0,0,0,0,0,0,0,0,0,0,0,0,0,0,0,0,0,0,0,0,0,0,0,0,0,0,0,0,0,0,0,0,0,0,0,0,0,0,0,0,0,0,0,0,0,0,0,0,0,0,0,0,0,0,0,0,0],"sum_hessian":[7.62E3,5.351E3,2.269E3,1.779E3,3.572E3,1.708E3,5.61E2,1.172E3,6.07E2,1.834E3,1.738E3,2.33E2,1.475E3,5.45E2,1.6E1,3.17E2,8.55E2,6.1E1,5.46E2,5.94E2,1.24E3,1.377E3,3.61E2,6.1E1,1.72E2,8.31E2,6.44E2,5.02E2,4.3E1,7E0,3.1E2,7.08E2,1.47E2,6E1,1E0,4.01E2,1.45E2,2.05E2,3.89E2,7.32E2,5.08E2,8.08E2,5.69E2,2E2,1.61E2,5.8E1,3E0,2.7E1,1.45E2,2.38E2,5.93E2,4.27E2,2.17E2,1.09E2,3.93E2,2.7E1,1.6E1],"tree_param":{"num_deleted":"0","num_feature":"13","num_nodes":"57","size_leaf_vector":"0"}},{"base_weights":[1.7209462E2,1.1840559E2,2.2331345E2,7.093199E1,1.4171054E2,2.868753E2,1.3803033E2,6.3153183E1,9.5395424E1,1.776184E2,1.0471773E2,3.4799026E2,2.5046518E2,1.8041052E2,1.14330124E2,9.400301E1,5.6984352E1,1.1038065E2,7.20244E1,1.3932896E2,2.3254672E2,1.2291182E2,7.708249E1,2.6707303E2,3.5671848E2,2.3113806E2,3.0476767E2,1.6480157E2,2.4150862E2,1.24424416E2,6.2528896E1,3.4615856E1,1.0009072E2,4.073008E1,6.0327774E1,2.0219446E1,1.13367485E2,2.52218E1,7.798608E1,1.2212501E2,1.7286778E2,1.9297682E2,2.5929785E2,1.043828E2,1.436209E2,5.974425E1,8.871914E1,9.2607704E1,2.814147E2,3.6958078E2,3.2109668E2,2.169541E2,2.9756622E2,1.4863379E2,2.5524739E2,2.4378737E2,6.880127E1,1.1741557E2,1.6826276E2,5.031348E1,9.2349785E1],"categories":[],"categories_nodes":[],"categories_segments":[],"categories_sizes":[],"default_left":[true,true,true,true,true,true,true,true,true,true,true,true,true,true,true,true,true,true,true,true,true,true,true,true,true,true,false,true,true,true,true,false,false,false,false,false,false,false,false,false,false,false,false,false,false,false,false,false,false,false,false,false,false,false,false,false,false,false,false,false,false],"id":1,"left_children":[1,3,5,7,9,11,13,15,17,19,21,23,25,27,29,31,33,35,37,39,41,43,45,47,49,51,-1,53,55,57,59,-1,-1,-1,-1,-1,-1,-1,-1,-1,-1,-1,-1,-1,-1,-1,-1,-1,-1,-1,-1,-1,-1,-1,-1,-1,-1,-1,-1,-1,-1],"loss_changes":[2.092704E7,4.10684E6,2.1091664E7,2.26074E5,3.294092E6,4.875728E6,1.650794E6,1.71071E5,9.319075E4,2.624396E6,6.07973E5,4.854E5,1.396664E6,5.24528E5,5.50896E5,5.0864125E4,3.903E4,4.40375E4,2.99255E4,4.07535E5,4.93762E5,2.66865E5,9.24805E4,1.82879E5,2.1668E5,9.09256E5,0E0,6.57006E5,2.69345E4,2.52688E5,5.8403562E4,0E0,0E0,0E0,0E0,0E0,0E0,0E0,0E0,0E0,0E0,0E0,0E0,0E0,0E0,0E0,0E0,0E0,0E0,0E0,0E0,0E0,0E0,0E0,0E0,0E0,0E0,0E0,0E0,0E0,0E0],"parents":[2147483647,0,0,1,1,2,2,3,3,4,4,5,5,6,6,7,7,8,8,9,9,10,10,11,11,12,12,13,13,14,14,15,15,16,16,17,17,18,18,19,19,20,20,21,21,22,22,23,23,24,24,25,25,27,27,28,28,29,29,30,30],"right_children":[2,4,6,8,10,12,14,16,18,20,22,24,26,28,30,32,34,36,38,40,42,44,46,48,50,52,-1,54,56,58,60,-1,-1,-1,-1,-1,-1,-1,-1,-1,-1,-1,-1,-1,-1,-1,-1,-1,-1,-1,-1,-1,-1,-1,-1,-1,-1,-1,-1,-1,-1],"split_conditions":[2.009E1,1.1889999E1,6.65E1,3E0,6.4E1,4.45E1,7.65E1,4.05E1,6.95E1,3.5E0,8.45E1,1.5E0,3.075E1,2.911E1,9.15E1,5.33E0,6.1499996E0,7.79E0,7.2E1,1.681E1,1.435E1,3.5E0,3E0,2.35E1,4.05E1,3.5E0,3.0476767E1,3.5E0,3.157E1,3.5E0,3.5E0,3.4615858E0,1.0009072E1,4.073008E0,6.0327773E0,2.0219448E0,1.1336749E1,2.52218E0,7.798608E0,1.2212501E1,1.728678E1,1.9297682E1,2.5929785E1,1.043828E1,1.436209E1,5.9744253E0,8.871914E0,9.260771E0,2.814147E1,3.695808E1,3.210967E1,2.169541E1,2.9756622E1,1.48633795E1,2.552474E1,2.4378736E1,6.880127E0,1.1741557E1,1.6826277E1,5.031348E0,9.234979E0],"split_indices":[4,4,6,0,6,6,6,6,6,0,6,0,4,4,6,4,4,4,6,4,4,0,0,6,6,0,0,0,4,0,0,0,0,0,0,0,0,0,0,0,0,0,0,0,0,0,0,0,0,0,0,0,0,0,0,0,0,0,0,0,0],"split_type":[0,0,0,0,0,0,0,0,0,0,0,0,0,0,0,0,0,0,0,0,0,0,0,0,0,0,0,0,0,0,0,0,0,0,0,0,0,0,0,0,0,0,0,0,0,0,0,0,0,0,0,0,0,0,0,0,0,0,0,0,0],"sum_hessian":[7.62E3,3.722E3,3.898E3,1.227E3,2.495E3,2.232E3,1.666E3,9.34E2,2.93E2,1.264E3,1.231E3,8.3E2,1.402E3,5.95E2,1.071E3,1.53E2,7.81E2,1.76E2,1.17E2,7.47E2,5.17E2,7.4E2,4.91E2,8.4E1,7.46E2,1.038E3,3.64E2,4.77E2,1.18E2,8.95E2,1.76E2,1.5E1,1.38E2,1.36E2,6.45E2,6E0,1.7E2,1.4E1,1.03E2,4.97E2,2.5E2,2.12E2,3.05E2,3.94E2,3.46E2,2E2,2.91E2,7E0,7.7E1,5.41E2,2.05E2,8.59E2,1.79E2,4.07E2,7E1,1.16E2,2E0,7.75E2,1.2E2,1.27E2,4.9E1],"tree_param":{"num_deleted":"0","num_feature":"13","num_nodes":"61","size_leaf_vector":"0"}},{"base_weights":[1.5495004E2,9.4241745E1,1.7481198E2,8.702754E1,1.08515396E2,1.428631E2,1.98047E2,7.717944E1,1.0409213E2,1.1135625E2,7.9646736E1,1.3487874E2,1.5090652E2,2.0689188E2,1.7900238E2,6.6950264E1,8.32938E1,9.854236E1,1.1960457E2,8.889913E1,1.1653394E2,9.4321365E1,6.535668E1,1.4238971E2,1.2223167E2,1.4458803E2,1.6226974E2,1.9323666E2,2.201885E2,1.7442679E2,2.157566E2,3.271459E1,7.094682E1,8.989693E1,7.359235E1,1.0178067E2,6.591939E1,4.0408665E1,1.25853195E2,1.1489737E2,7.72636E1,1.1706267E2,2.4757933E1,7.210536E1,1.1524926E2,1.6841098E2,1.25106606E2,5.4667057E1,1.2675303E2,1.5068391E2,1.2741673E2,1.7505374E2,2.0841873E2,2.2464903E2,1.621699E2,1.4341678E2,1.7877316E2,2.197976E2,-2.3459904E0],"categories":[],"categories_nodes":[],"categories_segments":[],"categories_sizes":[],"default_left":[true,true,true,true,true,true,true,true,true,true,true,true,true,true,true,true,true,true,true,true,true,true,false,true,true,true,false,true,true,true,true,false,false,false,false,false,false,false,false,false,false,false,false,false,false,false,false,false,false,false,false,false,false,false,false,false,false,false,false],"id":2,"left_children":[1,3,5,7,9,11,13,15,17,19,21,23,25,27,29,31,33,35,37,39,41,43,-1,45,47,49,-1,51,53,55,57,-1,-1,-1,-1,-1,-1,-1,-1,-1,-1,-1,-1,-1,-1,-1,-1,-1,-1,-1,-1,-1,-1,-1,-1,-1,-1,-1,-1],"loss_changes":[9.170128E6,1.82293E5,4.230016E6,2.01061E5,4.0642E4,1.32268E5,5.18528E5,4.29565E4,2.529E4,5.36305E4,4.82075E3,9.6316E4,5.9414E4,3.63848E5,1.36892E5,3.8373875E4,2.3523E4,2.7744E4,5.0161375E4,2.2778875E4,1.7908E4,2.3695781E3,0E0,3.18688E5,1.33001E5,5.956E4,0E0,2.69964E5,2.54204E5,9.9046E4,1.02283E5,0E0,0E0,0E0,0E0,0E0,0E0,0E0,0E0,0E0,0E0,0E0,0E0,0E0,0E0,0E0,0E0,0E0,0E0,0E0,0E0,0E0,0E0,0E0,0E0,0E0,0E0,0E0,0E0],"parents":[2147483647,0,0,1,1,2,2,3,3,4,4,5,5,6,6,7,7,8,8,9,9,10,10,11,11,12,12,13,13,14,14,15,15,16,16,17,17,18,18,19,19,20,20,21,21,23,23,24,24,25,25,27,27,28,28,29,29,30,30],"right_children":[2,4,6,8,10,12,14,16,18,20,22,24,26,28,30,32,34,36,38,40,42,44,-1,46,48,50,-1,52,54,56,58,-1,-1,-1,-1,-1,-1,-1,-1,-1,-1,-1,-1,-1,-1,-1,-1,-1,-1,-1,-1,-1,-1,-1,-1,-1,-1,-1,-1],"split_conditions":[1.5E0,1.799955E1,9.99975E0,1.25E1,1.85E1,6.50235E0,3.5E0,7.9998E0,1.75E1,3.5E0,2.3001099E1,3.0016E0,1.25E1,1.5999599E1,2.5001049E1,1.5E0,7.5E0,1.5999599E1,3.0016E0,1.5E0,4.500055E1,2.100115E1,6.5356684E0,7.5E0,1.5E0,9.5E0,1.6226974E1,2.5E0,1.75E1,3.5E0,4.100065E1,3.2714589E0,7.094682E0,8.989693E0,7.359235E0,1.0178067E1,6.591939E0,4.0408664E0,1.25853195E1,1.14897375E1,7.7263603E0,1.1706267E1,2.4757934E0,7.2105365E0,1.1524926E1,1.6841099E1,1.2510661E1,5.466706E0,1.2675303E1,1.5068392E1,1.2741673E1,1.7505375E1,2.0841873E1,2.2464903E1,1.6216991E1,1.4341678E1,1.7877317E1,2.1979761E1,-2.3459904E-1],"split_indices":[0,7,7,10,10,7,0,7,10,10,7,7,10,7,7,10,10,7,7,10,7,7,0,10,10,10,0,0,10,10,7,0,0,0,0,0,0,0,0,0,0,0,0,0,0,0,0,0,0,0,0,0,0,0,0,0,0,0,0],"split_type":[0,0,0,0,0,0,0,0,0,0,0,0,0,0,0,0,0,0,0,0,0,0,0,0,0,0,0,0,0,0,0,0,0,0,0,0,0,0,0,0,0,0,0,0,0,0,0,0,0,0,0,0,0,0,0,0,0,0,0],"sum_hessian":[7.62E3,1.88E3,5.74E3,1.254E3,6.26E2,2.42E3,3.32E3,7.99E2,4.55E2,5.67E2,5.9E1,1.224E3,1.196E3,2.26E3,1.06E3,3.04E2,4.95E2,3.41E2,1.14E2,1.1E2,4.57E2,2.6E1,3.3E1,7.61E2,4.63E2,7.78E2,4.18E2,1.123E3,1.137E3,9.48E2,1.12E2,3.3E1,2.71E2,2.89E2,2.06E2,3.08E2,3.3E1,9E0,1.05E2,3.1E1,7.9E1,4.54E2,3E0,1.5E1,1.1E1,3E2,4.61E2,3E1,4.33E2,5.68E2,2.1E2,5.17E2,6.06E2,1.053E3,8.4E1,1.21E2,8.27E2,1.1E2,2E0],"tree_param":{"num_deleted":"0","num_feature":"13","num_nodes":"59","size_leaf_vector":"0"}},{"base_weights":[1.3950337E2,8.488816E1,1.5737164E2,7.1567505E1,1.1108425E2,1.635977E2,1.3571149E2,6.2194637E1,8.07951E1,1.3200777E2,1.6867868E2,1.4079999E2,1.305323E2,6.3947567E1,3.795807E1],"categories":[],"categories_nodes":[],"categories_segments":[],"categories_sizes":[],"default_left":[true,true,true,true,false,true,true,true,false,false,false,false,false,false,false],"id":3,"left_children":[1,3,5,7,-1,9,11,13,-1,-1,-1,-1,-1,-1,-1],"loss_changes":[7.421392E6,6.46597E5,7.49024E5,1.01656E5,0E0,6.89624E5,1.2852E4,2.310675E4,0E0,0E0,0E0,0E0,0E0,0E0,0E0],"parents":[2147483647,0,0,1,1,2,2,3,3,5,5,6,6,7,7],"right_children":[2,4,6,8,-1,10,12,14,-1,-1,-1,-1,-1,-1,-1],"split_conditions":[1.5E0,2.5E0,1.05E1,1.5E0,1.1108425E1,4.5E0,1.15E1,5E-1,8.07951E0,1.3200777E1,1.6867868E1,1.4079999E1,1.305323E1,6.394757E0,3.795807E0],"split_indices":[0,9,9,9,0,9,9,1,0,0,0,0,0,0,0],"split_type":[0,0,0,0,0,0,0,0,0,0,0,0,0,0,0],"sum_hessian":[7.62E3,1.88E3,5.74E3,1.249E3,6.31E2,4.453E3,1.287E3,6.24E2,6.25E2,6.21E2,3.832E3,6.35E2,6.52E2,5.8E2,4.4E1],"tree_param":{"num_deleted":"0","num_feature":"13","num_nodes":"15","size_leaf_vector":"0"}},{"base_weights":[1.25565315E2,7.641656E1,1.4164496E2,7.740253E1,3.4246613E1,1.471041E2,1.3085126E2,8.039039E1,7.005875E1,1.3981955E2,1.5252612E2,1.338496E2,1.11379395E2,1.2876802E2,1.5025488E2,1.5322945E2,5.3893013E1,1.2931508E2,1.383801E2,1.5619261E2,1.4452435E2,1.2745077E2,1.5293866E2,1.3989154E2,5.2872833E1],"categories":[],"categories_nodes":[],"categories_segments":[],"categories_sizes":[],"default_left":[true,true,true,true,false,true,true,false,false,true,true,true,false,false,false,true,false,true,true,false,false,false,false,false,false],"id":4,"left_children":[1,3,5,7,-1,9,11,-1,-1,13,15,17,-1,-1,-1,19,-1,21,23,-1,-1,-1,-1,-1,-1],"loss_changes":[6.009832E6,7.4441E4,3.16256E5,3.3171E4,0E0,1.26E5,9.5784E4,0E0,0E0,1.66536E5,1.40132E5,1.3818E4,0E0,0E0,0E0,2.9956E4,0E0,1.5271E4,9.6911E4,0E0,0E0,0E0,0E0,0E0,0E0],"parents":[2147483647,0,0,1,1,2,2,3,3,5,5,6,6,9,9,10,10,11,11,15,15,17,17,18,18],"right_children":[2,4,6,8,-1,10,12,-1,-1,14,16,18,-1,-1,-1,20,-1,22,24,-1,-1,-1,-1,-1,-1],"split_conditions":[1.5E0,5E-1,3.5E0,4.5E0,3.4246614E0,2.5E0,5.5E0,8.039039E0,7.0058746E0,2.5E0,5E-1,2.5E0,1.1137939E1,1.2876802E1,1.5025489E1,5.5E0,5.3893013E0,5E-1,5E-1,1.5619262E1,1.44524355E1,1.2745077E1,1.5293866E1,1.3989154E1,5.2872834E0],"split_indices":[0,1,0,11,0,11,11,0,0,0,1,11,0,0,0,11,0,1,1,0,0,0,0,0,0],"split_type":[0,0,0,0,0,0,0,0,0,0,0,0,0,0,0,0,0,0,0,0,0,0,0,0,0],"sum_hessian":[7.62E3,1.88E3,5.74E3,1.836E3,4.4E1,3.803E3,1.937E3,1.297E3,5.39E2,1.635E3,2.168E3,1.673E3,2.64E2,8.01E2,8.34E2,2.152E3,1.6E1,8.52E2,8.21E2,1.592E3,5.6E2,7.96E2,5.6E1,8.06E2,1.5E1],"tree_param":{"num_deleted":"0","num_feature":"13","num_nodes":"25","size_leaf_vector":"0"}},{"base_weights":[1.1302876E2,8.12125E1,1.8798807E2,4.0979935E1,9.685165E1,1.6514728E2,2.2481638E2,3.3225937E1,6.263653E1,1.01261635E2,6.3589943E1,1.8071089E2,1.130496E2,2.1584671E2,2.5336852E2,2.1563543E1,3.8310883E1,2.4427896E1,6.709771E1,9.075468E1,1.1815692E2,5.7843662E1,2.8884076E2,1.6549306E2,2.4042284E2,7.060467E1,1.4262793E2,1.8837985E2,2.2358325E2,2.5818542E2,8.155903E1,2.3612968E1,-2.622868E0,1.5373165E1,4.2894623E1,3.323377E1,-2.5675106E-1,7.370321E1,4.4681046E1,8.115095E1,9.73365E1,1.3644478E2,1.01726845E2,2.2457388E1,6.576968E1,1.9551045E2,1.2653806E2,2.1775957E2,3.1547144E2,1.2693108E2,5.337143E1,1.5705421E2,4.8814434E1,1.0828013E2,1.9497282E2,2.2707407E2,1.7498811E2,2.869793E2,2.3601566E2],"categories":[],"categories_nodes":[],"categories_segments":[],"categories_sizes":[],"default_left":[true,true,true,true,true,true,true,true,true,true,true,true,true,true,true,true,true,true,true,true,true,true,false,true,true,true,true,true,true,true,false,false,false,false,false,false,false,false,false,false,false,false,false,false,false,false,false,false,false,false,false,false,false,false,false,false,false,false,false],"id":5,"left_children":[1,3,5,7,9,11,13,15,17,19,21,23,25,27,29,31,33,35,37,39,41,43,-1,45,47,49,51,53,55,57,-1,-1,-1,-1,-1,-1,-1,-1,-1,-1,-1,-1,-1,-1,-1,-1,-1,-1,-1,-1,-1,-1,-1,-1,-1,-1,-1,-1,-1],"loss_changes":[1.8157552E7,3.362148E6,1.868464E6,2.4884825E5,5.57084E5,1.115848E6,1.62404E5,6.4223125E4,6.4605125E4,5.90748E5,5.674624E5,9.37532E5,3.9707425E5,9.5286E4,1.41891E5,1.7075453E4,7.9611E4,9.685209E3,4.764475E4,1.23122E5,3.7435E5,1.2217025E5,0E0,9.82338E5,2.95054E5,1.23435875E5,2.487705E5,5.6654E4,4.3436E4,5.1517E4,0E0,0E0,0E0,0E0,0E0,0E0,0E0,0E0,0E0,0E0,0E0,0E0,0E0,0E0,0E0,0E0,0E0,0E0,0E0,0E0,0E0,0E0,0E0,0E0,0E0,0E0,0E0,0E0,0E0],"parents":[2147483647,0,0,1,1,2,2,3,3,4,4,5,5,6,6,7,7,8,8,9,9,10,10,11,11,12,12,13,13,14,14,15,15,16,16,17,17,18,18,19,19,20,20,21,21,23,23,24,24,25,25,26,26,27,27,28,28,29,29],"right_children":[2,4,6,8,10,12,14,16,18,20,22,24,26,28,30,32,34,36,38,40,42,44,-1,46,48,50,52,54,56,58,-1,-1,-1,-1,-1,-1,-1,-1,-1,-1,-1,-1,-1,-1,-1,-1,-1,-1,-1,-1,-1,-1,-1,-1,-1,-1,-1,-1,-1],"split_conditions":[2.9925E1,1.271E1,2.993E1,1.107E1,2.419E1,3.2955E1,1.35E1,7.79E0,3.5E0,1.927E1,2.747E1,2.829E1,2.911E1,3.075E1,4.12875E1,1.0985E1,3.5E0,2.5E0,1.55E1,1.517E1,1.15E1,2.76525E1,2.8884077E1,2.665E1,2.911E1,4.5E0,1.65E1,1.5E0,4.12875E1,1.65E1,8.155903E0,2.361297E0,-2.622868E-1,1.5373166E0,4.2894626E0,3.323377E0,-2.5675107E-2,7.370321E0,4.468105E0,8.115095E0,9.73365E0,1.3644478E1,1.0172685E1,2.2457387E0,6.5769677E0,1.9551046E1,1.2653807E1,2.1775957E1,3.1547144E1,1.2693109E1,5.337143E0,1.5705421E1,4.8814435E0,1.0828013E1,1.9497282E1,2.2707407E1,1.7498812E1,2.8697931E1,2.3601566E1],"split_indices":[5,4,4,4,4,5,10,4,10,4,4,4,4,4,5,5,10,10,10,4,10,5,0,4,4,10,10,10,5,10,0,0,0,0,0,0,0,0,0,0,0,0,0,0,0,0,0,0,0,0,0,0,0,0,0,0,0,0,0],"split_type":[0,0,0,0,0,0,0,0,0,0,0,0,0,0,0,0,0,0,0,0,0,0,0,0,0,0,0,0,0,0,0,0,0,0,0,0,0,0,0,0,0,0,0,0,0,0,0,0,0,0,0,0,0,0,0,0,0,0,0],"sum_hessian":[7.62E3,5.351E3,2.269E3,1.499E3,3.852E3,1.404E3,8.65E2,1.106E3,3.93E2,3.399E3,4.53E2,1.079E3,3.25E2,6.65E2,2E2,3.38E2,7.68E2,4.2E1,3.51E2,2.1E3,1.299E3,4.43E2,1E1,8.63E2,2.16E2,1.35E2,1.9E2,1.52E2,5.13E2,1.94E2,6E0,3.12E2,2.6E1,1.29E2,6.39E2,3.1E1,1.1E1,2.69E2,8.2E1,8.6E2,1.24E3,6.11E2,6.88E2,8.2E1,3.61E2,4.85E2,3.78E2,1.69E2,4.7E1,3E1,1.05E2,1.64E2,2.6E1,1.3E1,1.39E2,4.75E2,3.8E1,7.9E1,1.15E2],"tree_param":{"num_deleted":"0","num_feature":"13","num_nodes":"59","size_leaf_vector":"0"}},{"base_weights":[1.01776085E2,1.4358144E2,5.844465E1,1.81756E2,1.1975987E2,8.0728775E1,3.1423876E1,-3.4226234E1,1.8502737E2,1.4583208E2,1.1495537E2,6.8635765E1,1.0116753E2,4.1575108E1,5.865454E0,-1.750088E1,-3.85116E1,2.1088713E2,1.7244832E2,1.6806694E2,1.338026E2,1.20259155E2,1.0789838E2,8.9680405E1,5.6319332E1,1.107035E2,8.953096E1,2.334931E1,5.0412277E1,-1.070882E1,1.2622818E1,-4.0038773E1,2.2562567E1,2.1808388E2,1.24582855E2,1.8553526E2,1.6053E2,1.3709235E2,1.7714323E2,1.1779505E2,1.3938388E2,1.1486652E2,1.5201427E2,7.581727E1,1.142762E2,7.039275E1,9.868323E1,3.8743435E1,6.5130806E1,1.1566832E2,7.381944E1,8.288328E1,1.3575253E2,6.734082E0,3.8446228E1,6.1752327E1,4.159239E1,-3.7036087E1,-6.4389286E0,2.8037647E1,-6.0696554E0],"categories":[],"categories_nodes":[],"categories_segments":[],"categories_sizes":[],"default_left":[true,true,true,true,true,true,true,true,true,true,true,true,true,true,true,true,false,true,true,true,true,true,true,true,true,true,true,true,true,true,true,false,false,false,false,false,false,false,false,false,false,false,false,false,false,false,false,false,false,false,false,false,false,false,false,false,false,false,false,false,false],"id":6,"left_children":[1,3,5,7,9,11,13,15,17,19,21,23,25,27,29,31,-1,33,35,37,39,41,43,45,47,49,51,53,55,57,59,-1,-1,-1,-1,-1,-1,-1,-1,-1,-1,-1,-1,-1,-1,-1,-1,-1,-1,-1,-1,-1,-1,-1,-1,-1,-1,-1,-1,-1,-1],"loss_changes":[1.379492E7,3.501784E6,2.250732E6,1.0592E6,2.80136E5,4.98296E5,4.3878925E5,4.1439648E2,4.3668E5,7.29235E4,6.0498E4,3.28369E5,7.24205E4,1.932955E5,5.4249547E4,7.398759E3,0E0,2.6443E5,1.21482E5,7.71425E3,2.809E3,1.76115E5,1.69286E5,7.384325E4,1.23121E5,6.5196E4,9.349075E4,9.912311E4,7.791275E4,1.5064819E4,9.951047E4,0E0,0E0,0E0,0E0,0E0,0E0,0E0,0E0,0E0,0E0,0E0,0E0,0E0,0E0,0E0,0E0,0E0,0E0,0E0,0E0,0E0,0E0,0E0,0E0,0E0,0E0,0E0,0E0,0E0,0E0],"parents":[2147483647,0,0,1,1,2,2,3,3,4,4,5,5,6,6,7,7,8,8,9,9,10,10,11,11,12,12,13,13,14,14,15,15,17,17,18,18,19,19,20,20,21,21,22,22,23,23,24,24,25,25,26,26,27,27,28,28,29,29,30,30],"right_children":[2,4,6,8,10,12,14,16,18,20,22,24,26,28,30,32,-1,34,36,38,40,42,44,46,48,50,52,54,56,58,60,-1,-1,-1,-1,-1,-1,-1,-1,-1,-1,-1,-1,-1,-1,-1,-1,-1,-1,-1,-1,-1,-1,-1,-1,-1,-1,-1,-1,-1,-1],"split_conditions":[6.25E1,4.35E1,7.95E1,1.55E1,4.65E1,1.5E0,9.25E1,2.5E0,5E-1,5E-1,5.55E1,6.85E1,7.25E1,5E-1,5E-1,5E-1,-3.85116E0,4.25E1,3.65E1,4.45E1,4.45E1,5.45E1,5.65E1,5E-1,5E-1,2.5E0,7.85E1,1.5E0,8.35E1,1.5E0,2.5E0,-4.003877E0,2.2562568E0,2.1808388E1,1.2458285E1,1.8553526E1,1.6053E1,1.3709235E1,1.7714323E1,1.1779506E1,1.3938388E1,1.1486652E1,1.52014265E1,7.581727E0,1.142762E1,7.0392756E0,9.868323E0,3.8743436E0,6.5130806E0,1.1566833E1,7.381944E0,8.288328E0,1.35752535E1,6.734082E-1,3.8446229E0,6.175233E0,4.159239E0,-3.7036088E0,-6.438929E-1,2.8037648E0,-6.0696554E-1],"split_indices":[6,6,6,6,6,3,6,3,2,2,6,6,6,2,2,2,0,6,6,6,6,6,6,2,2,3,6,3,6,3,3,0,0,0,0,0,0,0,0,0,0,0,0,0,0,0,0,0,0,0,0,0,0,0,0,0,0,0,0,0,0],"split_type":[0,0,0,0,0,0,0,0,0,0,0,0,0,0,0,0,0,0,0,0,0,0,0,0,0,0,0,0,0,0,0,0,0,0,0,0,0,0,0,0,0,0,0,0,0,0,0,0,0,0,0,0,0,0,0,0,0,0,0,0,0],"sum_hessian":[7.62E3,3.877E3,3.743E3,1.487E3,2.39E3,2.05E3,1.693E3,2.2E1,1.465E3,3.67E2,2.023E3,1.291E3,7.59E2,1.211E3,4.82E2,6E0,1.6E1,4.74E2,9.91E2,1.24E2,2.43E2,1.145E3,8.78E2,4.74E2,8.17E2,4.12E2,3.47E2,3.97E2,8.14E2,1.39E2,3.43E2,4E0,2E0,4.36E2,3.8E1,4.65E2,5.26E2,3.2E1,9.2E1,6.9E1,1.74E2,9.83E2,1.62E2,1.48E2,7.3E2,1.54E2,3.2E2,2.75E2,5.42E2,3.61E2,5.1E1,3.06E2,4.1E1,1.9E2,2.07E2,3.53E2,4.61E2,1.8E1,1.21E2,1.88E2,1.55E2],"tree_param":{"num_deleted":"0","num_feature":"13","num_nodes":"61","size_leaf_vector":"0"}},{"base_weights":[9.16335E1,-5.4550777E1,1.507062E2,-6.261918E1,-7.418278E0,1.760244E2,3.473783E1,-3.7130386E1,-6.780137E1,-1.1996361E1,-2.645492E0,1.3988766E2,2.4098083E2,7.698707E1,1.4975425E1,-3.3799187E1,-4.8354233E1,-5.345055E1,-7.6605675E1,-9.3028965E0,-2.6791723E1,2.6554933E0,-9.468636E0,2.0165814E2,1.2238116E2,1.5071176E2,3.0300198E2,3.8349194E1,1.0935748E2,3.4329773E1,-4.6278453E0,-3.753669E1,-4.806272E0,-4.99451E1,4.900767E-1,-4.8241093E1,-6.129425E1,-7.156833E1,-9.281529E1,-1.2625267E1,1.9921441E0,-3.143964E1,-1.4440788E1,1.7793682E1,-2.3566899E-1,-1.805946E1,5.7100763E0,1.24642044E2,2.760874E2,7.170824E1,1.3742964E2,1.9087361E2,9.4866035E1,3.5565427E2,2.1530565E2,1.7729864E1,5.3349796E1,8.130295E1,1.2331984E2,1.163962E1,6.117924E1,-1.1418254E1,8.662493E0],"categories":[],"categories_nodes":[],"categories_segments":[],"categories_sizes":[],"default_left":[true,true,true,true,true,true,true,true,true,true,true,true,true,true,true,true,true,true,true,true,true,true,true,true,true,true,true,true,true,true,true,false,false,false,false,false,false,false,false,false,false,false,false,false,false,false,false,false,false,false,false,false,false,false,false,false,false,false,false,false,false,false,false],"id":7,"left_children":[1,3,5,7,9,11,13,15,17,19,21,23,25,27,29,31,33,35,37,39,41,43,45,47,49,51,53,55,57,59,61,-1,-1,-1,-1,-1,-1,-1,-1,-1,-1,-1,-1,-1,-1,-1,-1,-1,-1,-1,-1,-1,-1,-1,-1,-1,-1,-1,-1,-1,-1,-1,-1],"loss_changes":[6.5820344E7,8.33178E5,1.5928976E7,2.438335E5,6.857615E3,1.041976E7,8.111655E5,9.4711875E3,1.910775E5,5.88549E3,5.880377E3,3.070248E6,8.857152E6,3.820535E5,2.5276256E5,2.6486438E4,5.9583438E3,2.026025E4,7.01825E4,5.385166E3,4.649297E2,4.1188003E3,9.484848E3,3.578632E6,1.692356E6,1.4369E6,4.26732E6,4.2573547E4,5.3734375E4,2.0264794E5,2.9998168E4,0E0,0E0,0E0,0E0,0E0,0E0,0E0,0E0,0E0,0E0,0E0,0E0,0E0,0E0,0E0,0E0,0E0,0E0,0E0,0E0,0E0,0E0,0E0,0E0,0E0,0E0,0E0,0E0,0E0,0E0,0E0,0E0],"parents":[2147483647,0,0,1,1,2,2,3,3,4,4,5,5,6,6,7,7,8,8,9,9,10,10,11,11,12,12,13,13,14,14,15,15,16,16,17,17,18,18,19,19,20,20,21,21,22,22,23,23,24,24,25,25,26,26,27,27,28,28,29,29,30,30],"right_children":[2,4,6,8,10,12,14,16,18,20,22,24,26,28,30,32,34,36,38,40,42,44,46,48,50,52,54,56,58,60,62,-1,-1,-1,-1,-1,-1,-1,-1,-1,-1,-1,-1,-1,-1,-1,-1,-1,-1,-1,-1,-1,-1,-1,-1,-1,-1,-1,-1,-1,-1,-1,-1],"split_conditions":[6.5E0,5.5E0,2.05E1,5E-1,2.159E1,1.55E1,2.15E1,3.0682499E1,1.9317501E1,2.0075E1,2.841E1,8.5E0,2.38625E1,2.38625E1,2.25E1,2.76525E1,3.75E1,1.47725E1,3.0682499E1,1.62875E1,1.55E1,4.5E0,3.1439999E1,7.5E0,1.7045E1,1.85E1,1.85E1,1.553E1,2.91675E1,2.4619999E1,2.6895E1,-3.753669E0,-4.806272E-1,-4.99451E0,4.900767E-2,-4.8241096E0,-6.129425E0,-7.156833E0,-9.281529E0,-1.2625268E0,1.9921441E-1,-3.143964E0,-1.4440788E0,1.7793683E0,-2.35669E-2,-1.805946E0,5.7100767E-1,1.2464205E1,2.760874E1,7.1708236E0,1.3742965E1,1.9087362E1,9.486604E0,3.5565426E1,2.1530565E1,1.7729864E0,5.3349795E0,8.130295E0,1.23319845E1,1.163962E0,6.117924E0,-1.1418254E0,8.6624926E-1],"split_indices":[12,12,12,12,5,12,12,5,5,5,5,12,5,5,12,5,5,5,5,5,10,10,5,12,5,12,12,5,5,5,5,0,0,0,0,0,0,0,0,0,0,0,0,0,0,0,0,0,0,0,0,0,0,0,0,0,0,0,0,0,0,0,0],"split_type":[0,0,0,0,0,0,0,0,0,0,0,0,0,0,0,0,0,0,0,0,0,0,0,0,0,0,0,0,0,0,0,0,0,0,0,0,0,0,0,0,0,0,0,0,0,0,0,0,0,0,0,0,0,0,0,0,0,0,0,0,0,0,0],"sum_hessian":[7.62E3,2.193E3,5.427E3,1.872E3,3.21E2,4.454E3,9.73E2,3.18E2,1.554E3,1.62E2,1.59E2,2.864E3,1.59E3,3.09E2,6.64E2,2.49E2,6.9E1,5.94E2,9.6E2,1.39E2,2.3E1,8.9E1,7E1,6.3E2,2.234E3,6.49E2,9.41E2,1.42E2,1.67E2,3.34E2,3.3E2,2.2E2,2.9E1,6.7E1,2E0,3.62E2,2.32E2,7.37E2,2.23E2,1.08E2,3.1E1,1.5E1,8E0,1.4E1,7.5E1,4.5E1,2.5E1,3.11E2,3.19E2,5.13E2,1.721E3,3.76E2,2.73E2,5.86E2,3.55E2,6.1E1,8.1E1,5.8E1,1.09E2,1.82E2,1.52E2,2.19E2,1.11E2],"tree_param":{"num_deleted":"0","num_feature":"13","num_nodes":"63","size_leaf_vector":"0"}},{"base_weights":[8.248911E1,5.3654232E1,1.2357371E2,1.743856E1,6.7306E1,1.015686E2,1.6370044E2,2.6509398E1,-3.3181367E0,5.3658142E1,9.950387E1,1.6372552E2,8.181064E1,1.5633923E2,2.1893263E2,1.9883472E1,5.2838337E1,-7.434907E0,2.5980461E1,3.381023E1,6.710565E1,8.130145E1,1.189583E2,1.3260017E2,2.2987563E2,6.4814674E1,1.6824136E2,1.26834015E2,1.7299425E2,1.7681285E2,2.4620644E2,1.3573714E1,3.2263325E1,2.2808115E1,5.7996803E1,-2.0504765E1,-3.3882113E0,4.6069255E0,6.514291E1,5.464926E1,2.1777288E1,8.780899E1,5.134539E1,8.714416E1,3.895331E1,8.86733E1,1.7240895E2,9.788191E1,1.5275208E2,9.9774E1,2.5287308E2,5.0855206E1,9.523738E1,1.14240295E2,2.1305801E2,1.7179741E2,1.0597622E2,1.5860698E2,1.9453308E2,1.9563425E2,5.9857635E1],"categories":[],"categories_nodes":[],"categories_segments":[],"categories_sizes":[],"default_left":[true,true,true,true,true,true,true,true,true,true,true,true,true,true,true,true,true,true,true,true,true,true,true,true,true,true,true,true,true,true,false,false,false,false,false,false,false,false,false,false,false,false,false,false,false,false,false,false,false,false,false,false,false,false,false,false,false,false,false,false,false],"id":8,"left_children":[1,3,5,7,9,11,13,15,17,19,21,23,25,27,29,31,33,35,37,39,41,43,45,47,49,51,53,55,57,59,-1,-1,-1,-1,-1,-1,-1,-1,-1,-1,-1,-1,-1,-1,-1,-1,-1,-1,-1,-1,-1,-1,-1,-1,-1,-1,-1,-1,-1,-1,-1],"loss_changes":[9.01996E6,2.212926E6,2.755084E6,2.3152844E5,1.422601E6,2.479638E6,4.13726E5,1.4738E5,4.5117938E4,6.07134E5,3.30758E5,9.72718E5,2.25486E6,4.58606E5,9.92795E4,5.2611688E4,2.4358719E4,1.709232E4,3.7506234E4,2.3024462E5,4.38507E5,1.1980075E5,7.34821E5,2.16921E5,4.35004E5,5.423885E5,5.846845E5,3.156995E5,1.59602E5,1.04602875E5,0E0,0E0,0E0,0E0,0E0,0E0,0E0,0E0,0E0,0E0,0E0,0E0,0E0,0E0,0E0,0E0,0E0,0E0,0E0,0E0,0E0,0E0,0E0,0E0,0E0,0E0,0E0,0E0,0E0,0E0,0E0],"parents":[2147483647,0,0,1,1,2,2,3,3,4,4,5,5,6,6,7,7,8,8,9,9,10,10,11,11,12,12,13,13,14,14,15,15,16,16,17,17,18,18,19,19,20,20,21,21,22,22,23,23,24,24,25,25,26,26,27,27,28,28,29,29],"right_children":[2,4,6,8,10,12,14,16,18,20,22,24,26,28,30,32,34,36,38,40,42,44,46,48,50,52,54,56,58,60,-1,-1,-1,-1,-1,-1,-1,-1,-1,-1,-1,-1,-1,-1,-1,-1,-1,-1,-1,-1,-1,-1,-1,-1,-1,-1,-1,-1,-1,-1,-1],"split_conditions":[2.255E1,1.1889999E1,2.911E1,4.5E0,1.05E1,5.5E0,8.5E0,7.5E0,1.107E1,1.681E1,1.517E1,2.583E1,9.5E0,3.075E1,2.5E0,9.43E0,5E-1,6.9700003E0,1.15E1,2.5E0,4.5E0,5.5E0,3.5E0,1.5E0,5E-1,8.5E0,2.419E1,6.5E0,3.5E0,3.157E1,2.4620644E1,1.3573714E0,3.2263324E0,2.2808115E0,5.79968E0,-2.0504766E0,-3.3882114E-1,4.6069255E-1,6.514291E0,5.4649262E0,2.177729E0,8.780899E0,5.134539E0,8.714416E0,3.895331E0,8.867331E0,1.7240896E1,9.788192E0,1.52752075E1,9.977401E0,2.5287308E1,5.0855207E0,9.523738E0,1.1424029E1,2.1305801E1,1.717974E1,1.0597622E1,1.5860698E1,1.9453308E1,1.9563425E1,5.9857635E0],"split_indices":[4,4,4,11,9,9,9,9,4,4,4,4,9,4,11,4,11,4,9,9,9,11,11,11,11,9,4,9,11,4,0,0,0,0,0,0,0,0,0,0,0,0,0,0,0,0,0,0,0,0,0,0,0,0,0,0,0,0,0,0,0],"split_type":[0,0,0,0,0,0,0,0,0,0,0,0,0,0,0,0,0,0,0,0,0,0,0,0,0,0,0,0,0,0,0,0,0,0,0,0,0,0,0,0,0,0,0,0,0,0,0,0,0,0,0,0,0,0,0,0,0,0,0,0,0],"sum_hessian":[7.62E3,4.479E3,3.141E3,1.227E3,3.252E3,2.031E3,1.11E3,8.54E2,3.73E2,2.286E3,9.66E2,4.88E2,1.543E3,9.83E2,1.27E2,6.84E2,1.7E2,3.28E2,4.5E1,9.25E2,1.361E3,5.02E2,4.64E2,3.34E2,1.54E2,1.291E3,2.52E2,3.58E2,6.25E2,5.3E1,7.4E1,4.55E2,2.29E2,2.6E1,1.44E2,7.6E1,2.52E2,3E1,1.5E1,3.37E2,5.88E2,5.86E2,7.75E2,4.4E2,6.2E1,2.98E2,1.66E2,1.25E2,2.09E2,2.4E1,1.3E2,8.87E2,4.04E2,1.16E2,1.36E2,1.11E2,2.47E2,3.8E2,2.45E2,4.5E1,8E0],"tree_param":{"num_deleted":"0","num_feature":"13","num_nodes":"61","size_leaf_vector":"0"}},{"base_weights":[7.4282776E1,-5.4661797E1,1.2639039E2,-6.2010723E1,-1.1713968E1,1.4876645E2,2.3904045E1,-4.354993E1,-6.7776955E1,-1.0372078E1,-4.780086E1,1.206064E2,2.1920781E2,6.1161232E1,6.4850497E0,-3.5563183E1,-4.73256E1,-4.178825E1,-7.299679E1,-1.2541906E1,-4.3121624E0,-5.6954594E1,-2.3425467E1,7.112507E1,1.3714221E2,2.985013E2,1.3778502E2,2.4008873E1,7.246129E1,2.3756874E1,-1.0984879E1,-4.9257755E1,-4.153683E1,-4.2836086E1,-1.5075703E1,-6.554644E1,-7.761971E1,-1.406023E1,-9.373672E0,1.0972137E2,6.21073E1,1.959652E2,1.2218168E2,1.6674438E2,3.4361252E2,6.431046E1,1.6186053E2,2.51788E1,-2.5952625E-1,8.15748E1,5.114944E1,1.4399605E0,3.106189E1,-1.8993849E1,-8.230946E0],"categories":[],"categories_nodes":[],"categories_segments":[],"categories_sizes":[],"default_left":[true,true,true,true,true,true,true,true,true,true,true,true,true,true,true,false,true,true,true,true,false,false,false,true,true,true,true,true,true,true,true,false,false,false,false,false,false,false,false,false,false,false,false,false,false,false,false,false,false,false,false,false,false,false,false],"id":9,"left_children":[1,3,5,7,9,11,13,15,17,19,21,23,25,27,29,-1,31,33,35,37,-1,-1,-1,39,41,43,45,47,49,51,53,-1,-1,-1,-1,-1,-1,-1,-1,-1,-1,-1,-1,-1,-1,-1,-1,-1,-1,-1,-1,-1,-1,-1,-1],"loss_changes":[5.121308E7,6.91008E5,1.2442424E7,1.953145E5,1.4515215E4,8.80724E6,6.310361E5,1.102775E4,1.891125E5,3.8798594E3,3.1639453E2,2.594176E6,8.160468E6,1.27440875E5,2.0104416E5,0E0,4.1275E2,5.52075E3,3.4295E4,7.306406E2,0E0,0E0,0E0,2.699095E5,2.072608E6,3.759408E6,1.099991E6,2.35675E3,4.053175E4,5.4243766E4,6.872004E3,0E0,0E0,0E0,0E0,0E0,0E0,0E0,0E0,0E0,0E0,0E0,0E0,0E0,0E0,0E0,0E0,0E0,0E0,0E0,0E0,0E0,0E0,0E0,0E0],"parents":[2147483647,0,0,1,1,2,2,3,3,4,4,5,5,6,6,7,7,8,8,9,9,10,10,11,11,12,12,13,13,14,14,16,16,17,17,18,18,19,19,23,23,24,24,25,25,26,26,27,27,28,28,29,29,30,30],"right_children":[2,4,6,8,10,12,14,16,18,20,22,24,26,28,30,-1,32,34,36,38,-1,-1,-1,40,42,44,46,48,50,52,54,-1,-1,-1,-1,-1,-1,-1,-1,-1,-1,-1,-1,-1,-1,-1,-1,-1,-1,-1,-1,-1,-1,-1,-1],"split_conditions":[6.5E0,5.5E0,2.05E1,1.5E0,5E-1,1.65E1,2.15E1,1.5E0,5E-1,3.5E0,3.5E0,1.5E0,1.85E1,1.5E0,2.25E1,-3.5563183E0,4.5E0,5E-1,2.5E0,2.5E0,-4.3121624E-1,-5.6954594E0,-2.3425467E0,8.5E0,8.5E0,1.5E0,1.5E0,5E-1,3.5E0,1.5E0,1.5E0,-4.9257755E0,-4.153683E0,-4.283609E0,-1.5075703E0,-6.554644E0,-7.7619715E0,-1.406023E0,-9.3736714E-1,1.09721365E1,6.21073E0,1.959652E1,1.2218168E1,1.6674438E1,3.436125E1,6.4310465E0,1.6186054E1,2.5178802E0,-2.5952626E-2,8.15748E0,5.114944E0,1.4399604E-1,3.106189E0,-1.8993849E0,-8.2309455E-1],"split_indices":[12,12,12,0,1,12,12,12,12,0,0,0,12,0,12,0,12,1,12,0,0,0,0,12,12,0,0,1,0,0,0,0,0,0,0,0,0,0,0,0,0,0,0,0,0,0,0,0,0,0,0,0,0,0,0],"split_type":[0,0,0,0,0,0,0,0,0,0,0,0,0,0,0,0,0,0,0,0,0,0,0,0,0,0,0,0,0,0,0,0,0,0,0,0,0,0,0,0,0,0,0,0,0,0,0,0,0,0,0,0,0,0,0],"sum_hessian":[7.62E3,2.193E3,5.427E3,1.872E3,3.21E2,4.454E3,9.73E2,4.48E2,1.424E3,3.11E2,1E1,3.184E3,1.27E3,3.09E2,6.64E2,1.48E2,3E2,2.4E2,1.184E3,2.27E2,8.4E1,6E0,4E0,7.99E2,2.385E3,6.42E2,6.28E2,7.3E1,2.36E2,3.34E2,3.3E2,2.18E2,8.2E1,2.3E2,1E1,4.6E2,7.24E2,1.49E2,7.8E1,1.49E2,6.5E2,4.81E2,1.904E3,1.65E2,4.77E2,1.56E2,4.72E2,7E1,3E0,1.63E2,7.3E1,8.3E1,2.51E2,8.2E1,2.48E2],"tree_param":{"num_deleted":"0","num_feature":"13","num_nodes":"55","size_leaf_vector":"0"}},{"base_weights":[6.686662E1,9.3840126E1,3.0086584E1,1.2588003E2,7.741551E1,4.320006E1,4.6233053E0,1.0571086E2,1.4967558E2,9.193872E1,7.27411E1,5.0350323E1,2.6618559E1,1.5482658E1,-9.215173E0,-5.1541634E1,1.0916393E2,2.886266E1,1.5234225E2,8.292016E1,1.1358755E2,8.165186E1,6.602782E1,6.1740833E1,4.1036766E1,4.355586E1,2.06724E1,2.1210169E1,2.3521276E-2,2.8009794E1,-2.346926E1,1.2056109E2,1.00610954E2,1.1964373E1,1.3616849E2,2.3550853E2,1.4634146E2,7.5804184E1,9.651429E1,1.3091212E2,7.764942E1,4.8256226E1,8.855601E1,7.376347E1,5.255566E1,6.6607574E1,4.0482716E1,2.2305836E1,4.4011333E1,3.9170723E1,6.745247E1,2.3504284E1,6.3440785E0,1.0420623E1,4.5126274E1,1.3052208E1,-1.2434671E1,3.1723804E1,-2.0216324E1,-1.8181911E1,-4.0138412E1],"categories":[],"categories_nodes":[],"categories_segments":[],"categories_sizes":[],"default_left":[true,true,true,true,true,true,true,true,true,true,true,true,true,true,true,false,true,true,true,true,true,true,true,true,true,true,true,true,true,true,true,false,false,false,false,false,false,false,false,false,false,false,false,false,false,false,false,false,false,false,false,false,false,false,false,false,false,false,false,false,false],"id":10,"left_children":[1,3,5,7,9,11,13,15,17,19,21,23,25,27,29,-1,31,33,35,37,39,41,43,45,47,49,51,53,55,57,59,-1,-1,-1,-1,-1,-1,-1,-1,-1,-1,-1,-1,-1,-1,-1,-1,-1,-1,-1,-1,-1,-1,-1,-1,-1,-1,-1,-1,-1,-1],"loss_changes":[7.556632E6,2.301588E6,1.0765225E6,6.95768E5,1.8915E5,2.5030875E5,1.652094E5,4.45494E5,2.12865E5,1.260665E5,1.25096E5,1.5408275E5,6.331575E4,5.4329266E4,2.5689558E5,0E0,6.2862E4,2.5902055E4,2.93594E5,3.9425E4,1.14762E5,2.117845E5,1.26589E5,6.51355E4,4.409825E4,1.3686719E4,1.8988375E4,1.14835984E5,2.7437207E4,2.4757469E4,2.9534469E4,0E0,0E0,0E0,0E0,0E0,0E0,0E0,0E0,0E0,0E0,0E0,0E0,0E0,0E0,0E0,0E0,0E0,0E0,0E0,0E0,0E0,0E0,0E0,0E0,0E0,0E0,0E0,0E0,0E0,0E0],"parents":[2147483647,0,0,1,1,2,2,3,3,4,4,5,5,6,6,7,7,8,8,9,9,10,10,11,11,12,12,13,13,14,14,16,16,17,17,18,18,19,19,20,20,21,21,22,22,23,23,24,24,25,25,26,26,27,27,28,28,29,29,30,30],"right_children":[2,4,6,8,10,12,14,16,18,20,22,24,26,28,30,-1,32,34,36,38,40,42,44,46,48,50,52,54,56,58,60,-1,-1,-1,-1,-1,-1,-1,-1,-1,-1,-1,-1,-1,-1,-1,-1,-1,-1,-1,-1,-1,-1,-1,-1,-1,-1,-1,-1,-1,-1],"split_conditions":[6.65E1,4.35E1,8.45E1,3.5E0,4.95E1,4.5E0,9.25E1,9E0,1.75E1,4.5E0,2.5E0,7.45E1,7.15E1,4.5E0,1.5E0,-5.1541634E0,3.55E1,5.5E0,2.45E1,4.75E1,4.75E1,5.25E1,6.05E1,3.5E0,7.65E1,7.05E1,8.25E1,2.5E0,8.75E1,5E-1,9.85E1,1.2056109E1,1.0061095E1,1.1964372E0,1.3616849E1,2.3550854E1,1.4634147E1,7.5804186E0,9.651429E0,1.3091212E1,7.764942E0,4.8256226E0,8.855601E0,7.3763475E0,5.255566E0,6.6607575E0,4.0482717E0,2.2305837E0,4.4011335E0,3.9170723E0,6.745247E0,2.3504283E0,6.344079E-1,1.0420623E0,4.5126276E0,1.3052208E0,-1.2434672E0,3.1723804E0,-2.0216324E0,-1.8181912E0,-4.013841E0],"split_indices":[6,6,6,11,6,11,6,6,6,11,11,6,6,11,11,0,6,11,6,6,6,6,6,11,6,6,6,11,6,1,6,0,0,0,0,0,0,0,0,0,0,0,0,0,0,0,0,0,0,0,0,0,0,0,0,0,0,0,0,0,0],"split_type":[0,0,0,0,0,0,0,0,0,0,0,0,0,0,0,0,0,0,0,0,0,0,0,0,0,0,0,0,0,0,0,0,0,0,0,0,0,0,0,0,0,0,0,0,0,0,0,0,0,0,0,0,0,0,0,0,0,0,0,0,0],"sum_hessian":[7.62E3,4.395E3,3.225E3,1.487E3,2.908E3,2.128E3,1.097E3,8.08E2,6.79E2,7.03E2,2.205E3,1.485E3,6.43E2,6.15E2,4.82E2,1.7E1,7.91E2,1.5E1,6.64E2,5E2,2.03E2,9.42E2,1.263E3,6.65E2,8.2E2,1.65E2,4.78E2,4.48E2,1.67E2,1.33E2,3.49E2,3.33E2,4.58E2,1.4E1,1E0,4.2E1,6.22E2,3.33E2,1.67E2,1.35E2,6.8E1,1.63E2,7.79E2,7.99E2,4.64E2,5.39E2,1.26E2,1.14E2,7.06E2,1.42E2,2.3E1,3.98E2,8E1,3.1E2,1.38E2,8.2E1,8.5E1,1.24E2,9E0,2.67E2,8.2E1],"tree_param":{"num_deleted":"0","num_feature":"13","num_nodes":"61","size_leaf_vector":"0"}},{"base_weights":[6.0204403E1,-5.3827717E1,1.0628699E2,-6.051918E1,-1.4706798E1,4.6290695E1,1.6608598E2,-6.9582085E1,-3.640231E1,8.269421E0,-6.516238E1,5.8662445E1,-9.330436E0,1.9829796E2,6.1172256E1,-7.227332E1,-5.693581E1,-1.0093071E1,-6.066556E1,-1.5079213E1,3.0609173E1,3.965479E1,1.0565687E2,1.356731E1,-1.9771084E1,1.6124515E2,3.2305896E2,1.03071724E2,2.0468258E1,-5.8224964E1,-7.585904E1,-1.5288881E0,-2.6091543E1,-5.3457058E1,-6.440537E1,1.2604297E1,3.4911457E1,2.1482906E1,6.2480427E1,1.5104039E2,5.9481506E1,3.2658672E1,5.8567104E0,-9.02026E0,-3.079427E1,2.3156912E2,1.4388574E2,3.8054727E2,1.6583803E2,1.223846E2,5.093701E1,4.0960407E1,1.6403848E-1],"categories":[],"categories_nodes":[],"categories_segments":[],"categories_sizes":[],"default_left":[true,true,true,true,true,true,true,true,true,true,false,true,true,true,true,true,false,true,true,false,true,true,true,true,true,true,true,true,true,false,false,false,false,false,false,false,false,false,false,false,false,false,false,false,false,false,false,false,false,false,false,false,false],"id":11,"left_children":[1,3,5,7,9,11,13,15,17,19,-1,21,23,25,27,29,-1,31,33,-1,35,37,39,41,43,45,47,49,51,-1,-1,-1,-1,-1,-1,-1,-1,-1,-1,-1,-1,-1,-1,-1,-1,-1,-1,-1,-1,-1,-1,-1,-1],"loss_changes":[4.00538E7,5.726945E5,1.946432E7,4.05787E5,3.7439547E5,1.866563E6,9.170704E6,4.08795E4,3.267908E5,1.1641266E5,0E0,1.9755945E6,1.18429516E5,9.55376E6,1.0881592E6,5.05095E4,0E0,3.3663336E4,2.576375E3,0E0,7.9154844E3,6.53593E5,1.325904E6,2.2240482E4,3.961692E4,1.92228E6,4.224652E6,3.091975E5,1.3522316E5,0E0,0E0,0E0,0E0,0E0,0E0,0E0,0E0,0E0,0E0,0E0,0E0,0E0,0E0,0E0,0E0,0E0,0E0,0E0,0E0,0E0,0E0,0E0,0E0],"parents":[2147483647,0,0,1,1,2,2,3,3,4,4,5,5,6,6,7,7,8,8,9,9,11,11,12,12,13,13,14,14,15,15,17,17,18,18,20,20,21,21,22,22,23,23,24,24,25,25,26,26,27,27,28,28],"right_children":[2,4,6,8,10,12,14,16,18,20,-1,22,24,26,28,30,-1,32,34,-1,36,38,40,42,44,46,48,50,52,-1,-1,-1,-1,-1,-1,-1,-1,-1,-1,-1,-1,-1,-1,-1,-1,-1,-1,-1,-1,-1,-1,-1,-1],"split_conditions":[6.5E0,5.5E0,2.0115E3,4.5E0,4.5E0,2.05E1,1.95E1,4.5E0,2.5E0,2.0115E3,-6.5162377E0,1.65E1,2.15E1,1.65E1,2.15E1,5E-1,-5.693581E0,1.5E0,3.5E0,-1.5079213E0,5E-1,3.5E0,1.85E1,1.5E0,2.25E1,8.5E0,4.5E0,4.5E0,2.25E1,-5.8224964E0,-7.585904E0,-1.5288882E-1,-2.6091545E0,-5.345706E0,-6.4405375E0,1.2604297E0,3.4911458E0,2.1482906E0,6.2480426E0,1.5104039E1,5.9481506E0,3.2658672E0,5.8567107E-1,-9.02026E-1,-3.079427E0,2.3156912E1,1.4388575E1,3.805473E1,1.6583803E1,1.223846E1,5.0937014E0,4.0960407E0,1.6403848E-2],"split_indices":[12,12,8,11,11,12,12,12,12,8,0,12,12,12,12,12,0,12,12,0,11,11,12,11,12,12,11,11,12,0,0,0,0,0,0,0,0,0,0,0,0,0,0,0,0,0,0,0,0,0,0,0,0],"split_type":[0,0,0,0,0,0,0,0,0,0,0,0,0,0,0,0,0,0,0,0,0,0,0,0,0,0,0,0,0,0,0,0,0,0,0,0,0,0,0,0,0,0,0,0,0,0,0,0,0,0,0,0,0],"sum_hessian":[7.62E3,2.193E3,5.427E3,1.872E3,3.21E2,2.71E3,2.717E3,1.359E3,5.13E2,2.21E2,1E2,2.217E3,4.93E2,2.078E3,6.39E2,1.116E3,2.43E2,2.47E2,2.66E2,1.08E2,1.13E2,1.58E3,6.37E2,1.54E2,3.39E2,1.604E3,4.74E2,3.14E2,3.25E2,2.31E2,8.85E2,1.62E2,8.5E1,9.7E1,1.69E2,2.3E1,9E1,8.81E2,6.99E2,3.2E2,3.17E2,4.3E1,1.11E2,1.73E2,1.66E2,3.15E2,1.289E3,3.46E2,1.28E2,2.28E2,8.6E1,1.61E2,1.64E2],"tree_param":{"num_deleted":"0","num_feature":"13","num_nodes":"53","size_leaf_vector":"0"}},{"base_weights":[5.41984E1,3.1261654E1,8.688218E1,7.0595384E0,4.3426E1,1.2130288E2,3.262053E1,-1.211695E1,1.6698715E1,7.121248E1,2.4710674E1,1.6330298E2,1.0320083E2,2.5014885E1,8.142633E1,-2.122668E1,-8.5361993E-1,4.2677712E0,2.821419E1,5.9190067E1,9.796219E1,3.558156E1,3.3085237E0,2.2279657E2,1.1579781E2,1.2377142E2,9.05712E1,3.5539692E1,3.225283E0,9.61482E1,4.3637054E1,-9.315463E0,-2.648872E1,5.4073837E1,-3.96188E0,-5.1411676E0,1.5082164E1,3.0452051E1,-1.0226024E1,-3.5633633E1,6.3173527E1,1.2593433E2,6.160533E1,1.7303558E1,4.1093296E1,1.0695694E1,-8.6424465E0,2.521204E2,1.706499E2,1.4773885E2,9.737976E1,1.2986223E2,5.942563E1,7.496133E1,1.0054422E2,1.328782E1,4.5035908E1,1.3254502E1,-2.255338E1,9.795942E1,-1.9977112E0,-2.9417099E1,4.7670216E1],"categories":[],"categories_nodes":[],"categories_segments":[],"categories_sizes":[],"default_left":[true,true,true,true,true,true,true,true,true,true,true,true,true,true,true,true,true,true,true,true,true,true,true,true,true,true,true,true,true,true,true,false,false,false,false,false,false,false,false,false,false,false,false,false,false,false,false,false,false,false,false,false,false,false,false,false,false,false,false,false,false,false,false],"id":12,"left_children":[1,3,5,7,9,11,13,15,17,19,21,23,25,27,29,31,33,35,37,39,41,43,45,47,49,51,53,55,57,59,61,-1,-1,-1,-1,-1,-1,-1,-1,-1,-1,-1,-1,-1,-1,-1,-1,-1,-1,-1,-1,-1,-1,-1,-1,-1,-1,-1,-1,-1,-1,-1,-1],"loss_changes":[5.709258E6,1.318113E6,5.862892E6,2.7751647E5,1.5475E6,1.441756E6,4.501335E5,5.1269242E4,1.4255988E5,3.78224E5,4.1432675E5,1.601563E6,3.36336E5,2.4213025E5,8.5644375E4,1.675682E4,3.829783E4,4.92214E4,4.5074E4,3.1603925E5,3.666485E5,1.1778375E5,5.325985E4,3.42679E5,1.731805E5,1.89876E5,1.211655E5,1.4948138E5,8.9660734E4,2.1953625E4,1.5727523E4,0E0,0E0,0E0,0E0,0E0,0E0,0E0,0E0,0E0,0E0,0E0,0E0,0E0,0E0,0E0,0E0,0E0,0E0,0E0,0E0,0E0,0E0,0E0,0E0,0E0,0E0,0E0,0E0,0E0,0E0,0E0,0E0],"parents":[2147483647,0,0,1,1,2,2,3,3,4,4,5,5,6,6,7,7,8,8,9,9,10,10,11,11,12,12,13,13,14,14,15,15,16,16,17,17,18,18,19,19,20,20,21,21,22,22,23,23,24,24,25,25,26,26,27,27,28,28,29,29,30,30],"right_children":[2,4,6,8,10,12,14,16,18,20,22,24,26,28,30,32,34,36,38,40,42,44,46,48,50,52,54,56,58,60,62,-1,-1,-1,-1,-1,-1,-1,-1,-1,-1,-1,-1,-1,-1,-1,-1,-1,-1,-1,-1,-1,-1,-1,-1,-1,-1,-1,-1,-1,-1,-1,-1],"split_conditions":[2.255E1,1.271E1,6.85E1,5E-1,5.85E1,5E-1,2.911E1,1.025E1,9.43E0,1.845E1,8.45E1,4.75E1,4.55E1,8.35E1,7.55E1,4.85E1,3.55E1,5.85E1,8.95E1,2.05E1,4.45E1,1.517E1,9.35E1,3.157E1,5.55E1,3.649E1,2.747E1,5E-1,9.15E1,3.157E1,7.8E1,-9.3154633E-1,-2.6488721E0,5.407384E0,-3.96188E-1,-5.1411676E-1,1.5082164E0,3.045205E0,-1.0226024E0,-3.5633633E0,6.317353E0,1.2593433E1,6.1605334E0,1.7303559E0,4.1093297E0,1.0695695E0,-8.6424464E-1,2.5212042E1,1.7064991E1,1.4773885E1,9.737976E0,1.2986223E1,5.942563E0,7.496133E0,1.0054422E1,1.328782E0,4.503591E0,1.3254503E0,-2.255338E0,9.795942E0,-1.9977112E-1,-2.94171E0,4.7670217E0],"split_indices":[4,4,6,2,6,2,4,4,4,4,6,6,6,6,6,6,6,6,6,6,6,4,6,4,6,4,4,2,6,4,6,0,0,0,0,0,0,0,0,0,0,0,0,0,0,0,0,0,0,0,0,0,0,0,0,0,0,0,0,0,0,0,0],"split_type":[0,0,0,0,0,0,0,0,0,0,0,0,0,0,0,0,0,0,0,0,0,0,0,0,0,0,0,0,0,0,0,0,0,0,0,0,0,0,0,0,0,0,0,0,0,0,0,0,0,0,0,0,0,0,0,0,0,0,0,0,0,0,0],"sum_hessian":[7.62E3,4.479E3,3.141E3,1.499E3,2.98E3,1.921E3,1.22E3,5.01E2,9.98E2,1.198E3,1.782E3,5.76E2,1.345E3,1.057E3,1.63E2,2.76E2,2.25E2,4.81E2,5.17E2,8.29E2,3.69E2,1.181E3,6.01E2,2.54E2,3.22E2,5.08E2,8.37E2,7.12E2,3.45E2,1.16E2,4.7E1,8.6E1,1.9E2,1.1E1,2.14E2,2.57E2,2.24E2,4.89E2,2.8E1,3.3E1,7.96E2,2.07E2,1.62E2,2.75E2,9.06E2,3.72E2,2.29E2,1.6E2,9.4E1,1.15E2,2.07E2,4.63E2,4.5E1,3.3E2,5.07E2,2.14E2,4.98E2,2.49E2,9.6E1,1.14E2,2E0,2E0,4.5E1],"tree_param":{"num_deleted":"0","num_feature":"13","num_nodes":"63","size_leaf_vector":"0"}},{"base_weights":[4.8799896E1,2.8142853E1,7.8234886E1,1.1092606E1,4.2389336E1,6.456493E1,1.0315758E2,-7.260514E0,1.9758936E1,4.5034115E1,2.859903E1,5.8535843E1,8.084826E1,1.2923955E2,9.1179016E1,-1.9120548E1,1.4004102E0,3.8409812E0,2.8194582E1,3.7296154E1,5.279402E1,6.3924885E0,3.2057396E1,1.4974306E1,6.0318165E1,6.754359E1,8.369371E1,1.4700182E2,1.0514412E2,7.8971725E1,1.08905716E2,-3.1068676E1,-1.6176676E1,-2.3025837E1,3.367838E0,-4.0674195E0,6.2728953E0,1.3120951E1,3.0422459E1,4.4051933E1,2.3765E1,4.783354E1,6.5472885E1,4.7701294E1,3.0641626E1,7.862508E1,-1.3938527E1,5.7278397E1,7.734182E1,4.8376514E1,8.4850845E1,8.944585E1,7.757466E1,1.22107445E2,1.671271E2,9.357464E1,1.4337517E2,8.8728386E1,5.0105324E1,1.0958035E2,-4.4441734E1],"categories":[],"categories_nodes":[],"categories_segments":[],"categories_sizes":[],"default_left":[true,true,true,true,true,true,true,true,true,true,true,true,true,true,true,true,true,true,true,true,true,false,true,true,true,true,true,true,true,true,true,false,false,false,false,false,false,false,false,false,false,false,false,false,false,false,false,false,false,false,false,false,false,false,false,false,false,false,false,false,false],"id":13,"left_children":[1,3,5,7,9,11,13,15,17,19,21,23,25,27,29,31,33,35,37,39,41,-1,43,45,47,49,51,53,55,57,59,-1,-1,-1,-1,-1,-1,-1,-1,-1,-1,-1,-1,-1,-1,-1,-1,-1,-1,-1,-1,-1,-1,-1,-1,-1,-1,-1,-1,-1,-1],"loss_changes":[4.630606E6,1.087214E6,1.062116E6,3.248981E5,8.6968E4,1.93362E5,3.33116E5,6.748483E4,1.8581519E5,1.19924E5,2.9822688E4,1.13796E5,1.350525E4,1.30535E5,1.550625E5,8.768102E3,1.8094521E4,9.31766E3,2.9590875E4,9.2248E4,5.97605E4,0E0,5.3295938E3,1.12162234E5,6.81195E4,2.8399344E4,7.054E3,7.53985E4,5.10035E4,1.2287525E5,3.748875E4,0E0,0E0,0E0,0E0,0E0,0E0,0E0,0E0,0E0,0E0,0E0,0E0,0E0,0E0,0E0,0E0,0E0,0E0,0E0,0E0,0E0,0E0,0E0,0E0,0E0,0E0,0E0,0E0,0E0,0E0],"parents":[2147483647,0,0,1,1,2,2,3,3,4,4,5,5,6,6,7,7,8,8,9,9,10,10,11,11,12,12,13,13,14,14,15,15,16,16,17,17,18,18,19,19,20,20,22,22,23,23,24,24,25,25,26,26,27,27,28,28,29,29,30,30],"right_children":[2,4,6,8,10,12,14,16,18,20,22,24,26,28,30,32,34,36,38,40,42,-1,44,46,48,50,52,54,56,58,60,-1,-1,-1,-1,-1,-1,-1,-1,-1,-1,-1,-1,-1,-1,-1,-1,-1,-1,-1,-1,-1,-1,-1,-1,-1,-1,-1,-1,-1,-1],"split_conditions":[2.255E1,1.435E1,2.911E1,5E-1,5.5E0,4.5E0,5E-1,1.025E1,9.43E0,2.5E0,1.517E1,5E-1,2.419E1,5.5E0,2.5E0,6.1499996E0,4.5E0,6.1499996E0,5E-1,1.5E0,2.009E1,6.3924885E-1,1.599E1,2.583E1,2.829E1,5.5E0,5.5E0,3.075E1,3.403E1,3.321E1,3.813E1,-3.1068676E0,-1.6176676E0,-2.3025837E0,3.367838E-1,-4.0674195E-1,6.2728953E-1,1.312095E0,3.0422459E0,4.4051933E0,2.3765E0,4.7833543E0,6.5472884E0,4.7701297E0,3.0641627E0,7.862508E0,-1.3938527E0,5.72784E0,7.734182E0,4.8376517E0,8.485085E0,8.944585E0,7.7574663E0,1.2210745E1,1.6712711E1,9.357464E0,1.4337517E1,8.872839E0,5.0105324E0,1.0958035E1,-4.4441733E0],"split_indices":[4,4,4,2,11,11,2,4,4,11,4,2,4,11,11,4,11,4,11,11,4,0,4,4,4,11,11,4,4,4,4,0,0,0,0,0,0,0,0,0,0,0,0,0,0,0,0,0,0,0,0,0,0,0,0,0,0,0,0,0,0],"split_type":[0,0,0,0,0,0,0,0,0,0,0,0,0,0,0,0,0,0,0,0,0,0,0,0,0,0,0,0,0,0,0,0,0,0,0,0,0,0,0,0,0,0,0,0,0,0,0,0,0,0,0,0,0,0,0,0,0,0,0,0,0],"sum_hessian":[7.62E3,4.479E3,3.141E3,2.04E3,2.439E3,2.031E3,1.11E3,6.54E2,1.386E3,2.044E3,3.95E2,1.486E3,5.45E2,3.46E2,7.64E2,2.76E2,3.78E2,4.81E2,9.05E2,1.027E3,1.017E3,5.4E1,3.41E2,5.9E1,1.427E3,1.01E2,4.44E2,1.96E2,1.5E2,4.56E2,3.08E2,5.2E1,2.24E2,2.7E1,3.51E2,1.12E2,3.69E2,1.18E2,7.87E2,6.83E2,3.44E2,7.35E2,2.82E2,2.5E1,3.16E2,1.8E1,4.1E1,1.215E3,2.12E2,5E1,5.1E1,2.21E2,2.23E2,9.1E1,1.05E2,1.18E2,3.2E1,3.39E2,1.17E2,3.07E2,1E0],"tree_param":{"num_deleted":"0","num_feature":"13","num_nodes":"61","size_leaf_vector":"0"}},{"base_weights":[4.3941612E1,2.533537E1,7.045403E1,2.4053464E0,3.3980537E1,5.8135487E1,9.291204E1,9.049271E0,-1.2762998E1,3.9795364E1,-1.9224657E1,6.2605118E1,1.2025583E1,8.076555E1,1.097785E2,2.9736154E0,1.7949661E1,-1.8513714E1,-1.8779783E0,2.5042795E1,4.4884117E1,4.1900494E1,-2.4562593E1,6.7791885E1,4.9416756E1,3.4654896E0,8.026106E1,5.951396E1,8.59957E1,1.1664707E2,9.479325E1,4.1133895E0,-1.3867803E1,-4.080407E0,2.841527E1,-3.1907833E1,-1.52743E1,-1.0983751E1,1.7441011E1,3.613258E1,1.2147053E1,4.7798298E1,3.0194471E1,1.0774104E2,3.4557228E1,-3.9326893E1,-9.863162E0,4.001374E1,7.2915184E1,5.411287E1,9.569642E0,5.380059E1,-2.3506901E0,1.1967251E2,1.7683464E1,1.5610116E1,8.773134E1,8.931097E1,4.886789E1,1.1782984E2,1.8459265E1,8.429581E1,1.2947212E2],"categories":[],"categories_nodes":[],"categories_segments":[],"categories_sizes":[],"default_left":[true,true,true,true,true,true,true,true,true,true,true,true,true,true,true,true,true,true,true,true,true,true,true,true,true,true,true,true,true,true,true,false,false,false,false,false,false,false,false,false,false,false,false,false,false,false,false,false,false,false,false,false,false,false,false,false,false,false,false,false,false,false,false],"id":14,"left_children":[1,3,5,7,9,11,13,15,17,19,21,23,25,27,29,31,33,35,37,39,41,43,45,47,49,51,53,55,57,59,61,-1,-1,-1,-1,-1,-1,-1,-1,-1,-1,-1,-1,-1,-1,-1,-1,-1,-1,-1,-1,-1,-1,-1,-1,-1,-1,-1,-1,-1,-1,-1,-1],"loss_changes":[3.756671E6,8.8764225E5,8.62323E5,1.2383292E5,1.00738025E6,4.172845E5,2.16837E5,4.5972117E4,2.3172453E4,2.183635E5,1.0559238E5,1.22164E5,1.0460707E5,6.56735E4,3.4381E4,9.749159E3,8.013238E4,9.62775E3,2.3171773E4,1.0705166E5,9.10565E4,7.424383E3,6.3360156E4,1.84664E5,9.7461125E4,4.806776E4,4.5835688E4,1.6112547E5,5.8137E4,3.2695E4,4.1918375E4,0E0,0E0,0E0,0E0,0E0,0E0,0E0,0E0,0E0,0E0,0E0,0E0,0E0,0E0,0E0,0E0,0E0,0E0,0E0,0E0,0E0,0E0,0E0,0E0,0E0,0E0,0E0,0E0,0E0,0E0,0E0,0E0],"parents":[2147483647,0,0,1,1,2,2,3,3,4,4,5,5,6,6,7,7,8,8,9,9,10,10,11,11,12,12,13,13,14,14,15,15,16,16,17,17,18,18,19,19,20,20,21,21,22,22,23,23,24,24,25,25,26,26,27,27,28,28,29,29,30,30],"right_children":[2,4,6,8,10,12,14,16,18,20,22,24,26,28,30,32,34,36,38,40,42,44,46,48,50,52,54,56,58,60,62,-1,-1,-1,-1,-1,-1,-1,-1,-1,-1,-1,-1,-1,-1,-1,-1,-1,-1,-1,-1,-1,-1,-1,-1,-1,-1,-1,-1,-1,-1,-1,-1],"split_conditions":[2.255E1,1.1889999E1,2.911E1,4.5E0,2.5E0,2.5E0,3.5E0,9.43E0,1.025E1,1.435E1,5E-1,1.5E0,2.829E1,2.993E1,5.5E0,2.5E0,1.5E0,6.1499996E0,1.5E0,3.5E0,5.5E0,1.3530001E1,2.5E0,5E-1,5.5E0,5E-1,3.5E0,1.5E0,3.649E1,3.813E1,3.403E1,4.1133896E-1,-1.3867803E0,-4.0804073E-1,2.841527E0,-3.1907833E0,-1.5274299E0,-1.0983752E0,1.7441012E0,3.6132581E0,1.2147053E0,4.77983E0,3.019447E0,1.0774104E1,3.4557228E0,-3.9326894E0,-9.863162E-1,4.0013742E0,7.2915187E0,5.411287E0,9.569642E-1,5.3800592E0,-2.3506902E-1,1.1967251E1,1.7683464E0,1.5610117E0,8.773134E0,8.931097E0,4.886789E0,1.1782985E1,1.8459265E0,8.429581E0,1.2947212E1],"split_indices":[4,4,4,11,3,3,11,4,4,4,11,3,4,4,11,3,11,4,3,11,11,4,11,11,11,11,11,11,4,4,4,0,0,0,0,0,0,0,0,0,0,0,0,0,0,0,0,0,0,0,0,0,0,0,0,0,0,0,0,0,0,0,0],"split_type":[0,0,0,0,0,0,0,0,0,0,0,0,0,0,0,0,0,0,0,0,0,0,0,0,0,0,0,0,0,0,0,0,0,0,0,0,0,0,0,0,0,0,0,0,0,0,0,0,0,0,0,0,0,0,0,0,0,0,0,0,0,0,0],"sum_hessian":[7.62E3,4.479E3,3.141E3,1.227E3,3.252E3,2.031E3,1.11E3,8.54E2,3.73E2,2.932E3,3.2E2,1.851E3,1.8E2,6.49E2,4.61E2,5.09E2,3.45E2,2.43E2,1.3E2,7.54E2,2.178E3,2.5E1,2.95E2,1.325E3,5.26E2,1.61E2,1.9E1,1.31E2,5.18E2,3.11E2,1.5E2,4.78E2,3.1E1,1.11E2,2.34E2,4.5E1,1.98E2,8.9E1,4.1E1,4.04E2,3.5E2,1.815E3,3.63E2,1E0,2.4E1,1.46E2,1.49E2,2.08E2,1.117E3,4.7E2,5.6E1,1.6E1,1.45E2,1.1E1,8E0,5.2E1,7.9E1,4.74E2,4.4E1,3.07E2,4E0,1.18E2,3.2E1],"tree_param":{"num_deleted":"0","num_feature":"13","num_nodes":"63","size_leaf_vector":"0"}},{"base_weights":[3.9564514E1,-5.8781544E1,7.9310585E1,-6.502616E1,-2.2244436E1,9.666206E1,-1.24854036E-1,-7.088287E1,-5.4438675E1,-3.2963585E1,-1.2994844E1,7.428681E1,1.5264828E2,2.7747128E1,-1.3132658E1,-5.3978622E1,-7.490314E1,-3.9155415E1,-5.9930202E1,-4.381293E1,-3.0536802E1,-9.470314E0,-1.994966E1,1.2897983E2,6.0746468E1,2.1701207E2,8.6593346E1,4.0843064E-1,3.55312E1,9.387225E-2,-2.6509562E1,-5.7982964E1,-4.3969036E1,-7.642367E1,-6.817871E1,9.5157206E-1,-4.2583252E1,-3.858068E1,-6.2895527E1,-2.9332647E1,-6.639488E1,-8.07124E0,-1.3018524E1,-3.188514E1,-1.714621E1,6.1698204E1,1.9414511E2,5.427628E1,1.0557553E2,2.3392241E2,8.764248E1,1.20846725E2,5.2682503E1,3.9837856E0,-1.8221544E1,4.114721E1,2.130403E0,-2.4346846E1,7.1550217E0,-4.3656452E1,-2.1363544E1],"categories":[],"categories_nodes":[],"categories_segments":[],"categories_sizes":[],"default_left":[true,true,true,true,true,true,true,true,true,true,true,true,true,true,true,true,true,true,true,false,true,true,true,true,true,true,true,true,true,true,true,false,false,false,false,false,false,false,false,false,false,false,false,false,false,false,false,false,false,false,false,false,false,false,false,false,false,false,false,false,false],"id":15,"left_children":[1,3,5,7,9,11,13,15,17,19,21,23,25,27,29,31,33,35,37,-1,39,41,43,45,47,49,51,53,55,57,59,-1,-1,-1,-1,-1,-1,-1,-1,-1,-1,-1,-1,-1,-1,-1,-1,-1,-1,-1,-1,-1,-1,-1,-1,-1,-1,-1,-1,-1,-1],"loss_changes":[2.9794366E7,4.982645E5,7.482508E6,1.110285E5,3.1037625E4,5.567196E6,3.5334512E5,7.63555E4,5.30625E4,1.8152969E3,3.8065527E3,2.34896E6,5.381886E6,6.559611E4,1.179251E5,5.85025E3,3.241E3,2.5340781E4,2.7706375E4,0E0,2.4925234E3,2.7476758E2,8.702285E2,2.752036E6,7.33756E5,1.382966E6,7.225205E5,4.5928276E3,4.4686094E4,5.7816438E4,2.7624E4,0E0,0E0,0E0,0E0,0E0,0E0,0E0,0E0,0E0,0E0,0E0,0E0,0E0,0E0,0E0,0E0,0E0,0E0,0E0,0E0,0E0,0E0,0E0,0E0,0E0,0E0,0E0,0E0,0E0,0E0],"parents":[2147483647,0,0,1,1,2,2,3,3,4,4,5,5,6,6,7,7,8,8,9,9,10,10,11,11,12,12,13,13,14,14,15,15,16,16,17,17,18,18,20,20,21,21,22,22,23,23,24,24,25,25,26,26,27,27,28,28,29,29,30,30],"right_children":[2,4,6,8,10,12,14,16,18,20,22,24,26,28,30,32,34,36,38,-1,40,42,44,46,48,50,52,54,56,58,60,-1,-1,-1,-1,-1,-1,-1,-1,-1,-1,-1,-1,-1,-1,-1,-1,-1,-1,-1,-1,-1,-1,-1,-1,-1,-1,-1,-1,-1,-1],"split_conditions":[6.5E0,5.5E0,2.05E1,7.95E1,7.45E1,1.65E1,2.15E1,5E-1,1.5E0,4.95E1,8.85E1,8.5E0,1.85E1,4.65E1,2.25E1,6.95E1,4.5E0,8.15E1,8.15E1,-4.3812933E0,5E-1,8.65E1,9.1E1,7.5E0,1.55E1,7.85E1,1.95E1,4.55E1,8.65E1,4.95E1,5.25E1,-5.7982965E0,-4.3969035E0,-7.642367E0,-6.817871E0,9.5157206E-2,-4.258325E0,-3.8580682E0,-6.2895527E0,-2.9332647E0,-6.639488E0,-8.071241E-1,-1.3018525E0,-3.188514E0,-1.714621E0,6.1698203E0,1.941451E1,5.427628E0,1.0557553E1,2.339224E1,8.764248E0,1.2084673E1,5.2682505E0,3.9837858E-1,-1.8221544E0,4.114721E0,2.130403E-1,-2.4346845E0,7.155022E-1,-4.3656454E0,-2.1363544E0],"split_indices":[12,12,12,6,6,12,12,12,12,6,6,12,12,6,12,6,12,6,6,0,1,6,6,12,12,6,12,6,6,6,6,0,0,0,0,0,0,0,0,0,0,0,0,0,0,0,0,0,0,0,0,0,0,0,0,0,0,0,0,0,0],"split_type":[0,0,0,0,0,0,0,0,0,0,0,0,0,0,0,0,0,0,0,0,0,0,0,0,0,0,0,0,0,0,0,0,0,0,0,0,0,0,0,0,0,0,0,0,0,0,0,0,0,0,0,0,0,0,0,0,0,0,0,0,0],"sum_hessian":[7.62E3,2.193E3,5.427E3,1.872E3,3.21E2,4.454E3,9.73E2,1.201E3,6.71E2,1.47E2,1.74E2,3.184E3,1.27E3,3.09E2,6.64E2,2.34E2,9.67E2,1.8E2,4.91E2,2.3E1,1.24E2,1.18E2,5.6E1,6.3E2,2.554E3,6.42E2,6.28E2,6.9E1,2.4E2,3.34E2,3.3E2,1.63E2,7.1E1,7.79E2,1.88E2,1.4E1,1.66E2,6.2E1,4.29E2,1.22E2,2E0,8.9E1,2.9E1,8E0,4.8E1,3.11E2,3.19E2,2.234E3,3.2E2,5.67E2,7.5E1,3.11E2,3.17E2,5.9E1,1E1,2.05E2,3.5E1,7.4E1,2.6E2,7.4E1,2.56E2],"tree_param":{"num_deleted":"0","num_feature":"13","num_nodes":"61","size_leaf_vector":"0"}},{"base_weights":[3.5610664E1,2.1174282E1,6.9627365E1,5.1254883E0,2.9160757E1,5.392562E1,8.459719E1,-1.0483536E1,8.521622E0,1.8617582E1,3.2251102E1,2.4857115E1,5.741035E1,7.4154274E1,9.1639206E1,-2.968018E0,-1.3821747E1,5.7454824E0,1.9097782E1,2.2740147E1,-1.5061936E1,2.325978E1,3.3729282E1,3.4456352E1,-3.8005512E0,5.2121807E1,7.566192E1,7.647967E1,-1.3242766E1,1.0812797E2,7.5190056E1,5.7101513E1,-4.8786364E0,-1.1546874E1,-2.317249E1,7.843447E0,-3.7450335E0,-1.56042185E1,2.177277E1,1.8083248E1,3.1111141E1,-2.6970937E0,-2.6869846E1,2.4244888E1,-2.6052322E1,2.2350183E2,3.355046E1,3.5917084E1,1.4832917E-1,5.319754E1,-1.40073595E1,6.942977E1,9.7508965E1,7.44173E1,1.4661185E2,-3.5477596E1,2.7428478E1,1.1325889E2,-1.9091408E1,2.50763E1,8.3677345E1],"categories":[],"categories_nodes":[],"categories_segments":[],"categories_sizes":[],"default_left":[true,true,true,true,true,true,true,true,true,true,true,true,true,true,true,true,true,true,true,true,true,true,true,true,false,true,true,true,true,true,true,false,false,false,false,false,false,false,false,false,false,false,false,false,false,false,false,false,false,false,false,false,false,false,false,false,false,false,false,false,false],"id":16,"left_children":[1,3,5,7,9,11,13,15,17,19,21,23,25,27,29,31,33,35,37,39,41,43,45,47,-1,49,51,53,55,57,59,-1,-1,-1,-1,-1,-1,-1,-1,-1,-1,-1,-1,-1,-1,-1,-1,-1,-1,-1,-1,-1,-1,-1,-1,-1,-1,-1,-1,-1,-1],"loss_changes":[3.740123E6,6.8549125E5,5.27622E5,9.442811E4,1.1530675E5,1.1029E5,7.6852E4,7.7691836E3,4.2596836E4,1.1330109E5,3.534125E4,3.3723617E4,9.043375E4,9.777425E4,1.766405E5,1.1233342E4,4.04375E3,2.3186766E4,2.8528125E4,2.7208062E4,1.2626125E4,1.9753203E4,7.029075E4,4.1944688E3,0E0,5.605525E4,2.15145E4,5.355775E4,1.2809724E4,2.256925E5,1.4482888E5,0E0,0E0,0E0,0E0,0E0,0E0,0E0,0E0,0E0,0E0,0E0,0E0,0E0,0E0,0E0,0E0,0E0,0E0,0E0,0E0,0E0,0E0,0E0,0E0,0E0,0E0,0E0,0E0,0E0,0E0],"parents":[2147483647,0,0,1,1,2,2,3,3,4,4,5,5,6,6,7,7,8,8,9,9,10,10,11,11,12,12,13,13,14,14,15,15,16,16,17,17,18,18,19,19,20,20,21,21,22,22,23,23,25,25,26,26,27,27,28,28,29,29,30,30],"right_children":[2,4,6,8,10,12,14,16,18,20,22,24,26,28,30,32,34,36,38,40,42,44,46,48,-1,50,52,54,56,58,60,-1,-1,-1,-1,-1,-1,-1,-1,-1,-1,-1,-1,-1,-1,-1,-1,-1,-1,-1,-1,-1,-1,-1,-1,-1,-1,-1,-1,-1,-1],"split_conditions":[2.9925E1,1.62875E1,1.1999701E1,9.47E0,6.50235E0,3.0682499E1,1.5999599E1,1.1999701E1,1.950035E1,2.76525E1,1.8560001E1,9.99975E0,9.99975E0,4.053E1,3.2955E1,3.4099998E0,2.900095E1,1.5999599E1,1.02275E1,2.38625E1,2.91675E1,5E-1,1.9317501E1,5E-1,-3.8005513E-1,4.12875E1,3.5985E1,5E-1,1.399965E1,5E-1,3.37125E1,5.710151E0,-4.8786363E-1,-1.1546874E0,-2.317249E0,7.8434473E-1,-3.7450334E-1,-1.5604218E0,2.177277E0,1.8083248E0,3.1111143E0,-2.6970938E-1,-2.6869848E0,2.4244888E0,-2.6052322E0,2.2350183E1,3.355046E0,3.5917084E0,1.4832917E-2,5.319754E0,-1.400736E0,6.9429774E0,9.750896E0,7.44173E0,1.4661185E1,-3.5477598E0,2.742848E0,1.1325889E1,-1.9091408E0,2.50763E0,8.367735E0],"split_indices":[5,5,7,5,7,5,7,7,7,5,5,7,7,5,5,5,7,7,5,5,5,1,5,1,0,5,5,1,7,1,5,0,0,0,0,0,0,0,0,0,0,0,0,0,0,0,0,0,0,0,0,0,0,0,0,0,0,0,0,0,0],"split_type":[0,0,0,0,0,0,0,0,0,0,0,0,0,0,0,0,0,0,0,0,0,0,0,0,0,0,0,0,0,0,0,0,0,0,0,0,0,0,0,0,0,0,0,0,0,0,0,0,0,0,0,0,0,0,0,0,0,0,0,0,0],"sum_hessian":[7.62E3,5.351E3,2.269E3,1.779E3,3.572E3,1.11E3,1.159E3,3.17E2,1.462E3,8.12E2,2.76E3,1.2E2,9.9E2,4.72E2,6.87E2,9.9E1,2.18E2,1.16E3,3.02E2,7.24E2,8.8E1,3.93E2,2.367E3,9E1,3E1,7.71E2,2.19E2,4.6E2,1.2E1,3.4E2,3.47E2,2E0,9.7E1,1.78E2,4E1,9.51E2,2.09E2,2.1E1,2.81E2,4.68E2,2.56E2,4.4E1,4.4E1,3.86E2,7E0,1E0,2.366E3,8.6E1,4E0,7.59E2,1.2E1,1.74E2,4.5E1,4.49E2,1.1E1,8E0,4E0,3.27E2,1.3E1,5.1E1,2.96E2],"tree_param":{"num_deleted":"0","num_feature":"13","num_nodes":"61","size_leaf_vector":"0"}},{"base_weights":[3.2062943E1,1.2328108E1,4.1698586E1,1.5911535E1,-2.9399807E1,4.553064E1,-2.293338E0,5.183515E0,2.6524536E1,-1.7938408E1,-4.128652E1,3.8863E1,5.222861E1,4.2376183E1,-7.384761E0,7.949713E0,-1.164007E1,3.2447357E1,1.15981865E1,-3.2468346E1,-5.932969E0,-1.9781134E1,-5.3693398E1,4.662638E1,3.1579796E1,5.8296066E1,4.642673E1,7.156197E0,8.026035E1,-2.3872755E1,9.357845E0,2.8536236E0,1.298895E1,-1.3027171E1,-9.724004E0,2.7566484E1,4.5848663E1,-1.8546022E1,2.0694288E1,-2.4846296E1,-5.3552475E1,2.2937257E0,-1.7283955E1,1.5920988E1,-3.2182564E1,-4.285367E1,-7.273017E1,5.4192516E1,2.7734404E1,2.7789406E1,4.6648613E1,6.5125755E1,4.3669003E1,5.2934875E1,4.37213E1,3.2071957E1,-9.910668E-1,1.0580503E2,1.627666E1,-3.3810108E0,-4.0818024E1,7.018965E1,-1.0333984E0],"categories":[],"categories_nodes":[],"categories_segments":[],"categories_sizes":[],"default_left":[true,true,true,true,true,true,true,true,true,true,true,true,true,true,true,true,true,true,true,true,true,true,true,true,true,true,true,true,true,true,true,false,false,false,false,false,false,false,false,false,false,false,false,false,false,false,false,false,false,false,false,false,false,false,false,false,false,false,false,false,false,false,false],"id":17,"left_children":[1,3,5,7,9,11,13,15,17,19,21,23,25,27,29,31,33,35,37,39,41,43,45,47,49,51,53,55,57,59,61,-1,-1,-1,-1,-1,-1,-1,-1,-1,-1,-1,-1,-1,-1,-1,-1,-1,-1,-1,-1,-1,-1,-1,-1,-1,-1,-1,-1,-1,-1,-1,-1],"loss_changes":[1.4481385E6,3.7445428E5,8.63665E5,2.6198462E5,2.5642312E4,2.07406E5,9.343733E4,5.348053E4,1.015575E5,1.7390496E4,2.3817344E4,1.31468E5,7.88315E4,5.4591242E4,1.0250779E5,2.5151059E4,7.637109E1,5.21615E4,9.1163766E4,5.277828E3,5.6056504E3,1.7057018E4,8.108625E3,1.6091425E5,6.787E4,1.1015175E5,1.7936E4,5.0114854E3,2.9745898E4,6.435353E4,1.1707383E5,0E0,0E0,0E0,0E0,0E0,0E0,0E0,0E0,0E0,0E0,0E0,0E0,0E0,0E0,0E0,0E0,0E0,0E0,0E0,0E0,0E0,0E0,0E0,0E0,0E0,0E0,0E0,0E0,0E0,0E0,0E0,0E0],"parents":[2147483647,0,0,1,1,2,2,3,3,4,4,5,5,6,6,7,7,8,8,9,9,10,10,11,11,12,12,13,13,14,14,15,15,16,16,17,17,18,18,19,19,20,20,21,21,22,22,23,23,24,24,25,25,26,26,27,27,28,28,29,29,30,30],"right_children":[2,4,6,8,10,12,14,16,18,20,22,24,26,28,30,32,34,36,38,40,42,44,46,48,50,52,54,56,58,60,62,-1,-1,-1,-1,-1,-1,-1,-1,-1,-1,-1,-1,-1,-1,-1,-1,-1,-1,-1,-1,-1,-1,-1,-1,-1,-1,-1,-1,-1,-1,-1,-1],"split_conditions":[4.5E0,2.5E0,2.5E0,2.5E0,2.5E0,8.5E0,5E-1,5.5E0,1.5E0,1.5E0,2.5E0,6.5E0,1.05E1,9.5E0,2.5E0,1.5E0,1.5E0,4.5E0,1.5E0,4.5E0,4E0,3.5E0,4.5E0,1.5E0,1.5E0,1.5E0,1.5E0,5.5E0,1.1E1,1.5E0,5.5E0,2.8536236E-1,1.298895E0,-1.3027171E0,-9.7240037E-1,2.7566485E0,4.5848665E0,-1.8546022E0,2.069429E0,-2.4846296E0,-5.3552475E0,2.2937258E-1,-1.7283955E0,1.5920988E0,-3.2182565E0,-4.285367E0,-7.2730174E0,5.419252E0,2.7734404E0,2.7789407E0,4.664861E0,6.5125756E0,4.3669004E0,5.2934875E0,4.37213E0,3.2071958E0,-9.9106684E-2,1.0580503E1,1.6276661E0,-3.381011E-1,-4.0818024E0,7.0189652E0,-1.0333984E-1],"split_indices":[9,3,3,9,9,9,11,11,3,9,11,9,9,9,11,9,9,11,11,11,11,9,11,3,3,3,11,9,9,11,9,0,0,0,0,0,0,0,0,0,0,0,0,0,0,0,0,0,0,0,0,0,0,0,0,0,0,0,0,0,0,0,0],"split_type":[0,0,0,0,0,0,0,0,0,0,0,0,0,0,0,0,0,0,0,0,0,0,0,0,0,0,0,0,0,0,0,0,0,0,0,0,0,0,0,0,0,0,0,0,0,0,0,0,0,0,0,0,0,0,0,0,0,0,0,0,0,0,0],"sum_hessian":[7.62E3,2.501E3,5.119E3,2.304E3,1.97E2,4.709E3,4.1E2,1.147E3,1.157E3,1.02E2,9.5E1,2.364E3,2.345E3,4.1E1,3.69E2,9.86E2,1.61E2,8.27E2,3.3E2,4.5E1,5.7E1,3.6E1,5.9E1,1.141E3,1.223E3,1.141E3,1.204E3,2.2E1,1.9E1,1.86E2,1.83E2,4.92E2,4.94E2,8.7E1,7.4E1,6.09E2,2.18E2,7.6E1,2.54E2,3.5E1,1E1,3.3E1,2.4E1,9E0,2.7E1,4E1,1.9E1,8.13E2,3.28E2,9.8E2,2.43E2,7.75E2,3.66E2,3.47E2,8.57E2,5E0,1.7E1,1.3E1,6E0,8.5E1,1.01E2,2.6E1,1.57E2],"tree_param":{"num_deleted":"0","num_feature":"13","num_nodes":"63","size_leaf_vector":"0"}},{"base_weights":[2.8862333E1,1.6137957E1,5.8845596E1,5.2734747E0,3.6815216E1,4.8498867E1,1.0707031E2,8.892794E0,-2.6197548E1,2.1062897E1,4.9494724E1,9.8291855E1,3.869379E1,1.2114734E2,7.015656E1,-1.7766076E0,1.9963186E1,-2.0218155E1,-3.9799088E1,-1.688622E1,2.3444912E1,5.571368E1,5.642985E0,-5.0926575E1,1.0248809E2,2.0738073E1,5.5478123E1,6.6064514E1,1.2846684E2,5.6722275E1,1.1982456E2,-2.8526793E0,9.8257416E1,4.34894E1,4.6567626E0,-2.608514E1,-0E0,-4.9255085E1,-1.8978455E1,-3.0647797E1,3.253084E1,7.95865E0,3.068475E1,4.258864E1,6.869171E1,-1.4052546E1,9.660313E1,1.1963912E2,6.248916E1,5.5322365E1,-1.0300287E0,5.7678566E1,1.6664377E1,1.8234337E1,1.3920949E2,1.4767313E2,9.800122E1,3.7821404E1,1.07494644E2,8.7351105E1,1.414793E2],"categories":[],"categories_nodes":[],"categories_segments":[],"categories_sizes":[],"default_left":[true,true,true,true,true,true,true,true,true,true,true,true,true,true,true,true,true,true,true,true,true,true,true,false,true,true,true,true,true,true,true,false,false,false,false,false,false,false,false,false,false,false,false,false,false,false,false,false,false,false,false,false,false,false,false,false,false,false,false,false,false],"id":18,"left_children":[1,3,5,7,9,11,13,15,17,19,21,23,25,27,29,31,33,35,37,39,41,43,45,-1,47,49,51,53,55,57,59,-1,-1,-1,-1,-1,-1,-1,-1,-1,-1,-1,-1,-1,-1,-1,-1,-1,-1,-1,-1,-1,-1,-1,-1,-1,-1,-1,-1,-1,-1],"loss_changes":[2.9058525E6,1.2016998E6,1.12591E6,3.998618E5,3.6635725E5,9.08294E5,1.97442E5,3.7215978E5,2.803625E4,7.494725E4,2.772385E5,1.97965E5,4.697385E5,1.05683E5,6.68375E4,1.7198686E5,5.5603406E5,3.0217062E4,1.9842781E4,3.4300945E4,8.637297E4,1.4807275E5,2.3149608E5,0E0,1.9582325E5,5.712484E5,6.730475E4,1.21834484E5,1.3110925E5,8.180869E4,1.5270312E3,0E0,0E0,0E0,0E0,0E0,0E0,0E0,0E0,0E0,0E0,0E0,0E0,0E0,0E0,0E0,0E0,0E0,0E0,0E0,0E0,0E0,0E0,0E0,0E0,0E0,0E0,0E0,0E0,0E0,0E0],"parents":[2147483647,0,0,1,1,2,2,3,3,4,4,5,5,6,6,7,7,8,8,9,9,10,10,11,11,12,12,13,13,14,14,15,15,16,16,17,17,18,18,19,19,20,20,21,21,22,22,24,24,25,25,26,26,27,27,28,28,29,29,30,30],"right_children":[2,4,6,8,10,12,14,16,18,20,22,24,26,28,30,32,34,36,38,40,42,44,46,-1,48,50,52,54,56,58,60,-1,-1,-1,-1,-1,-1,-1,-1,-1,-1,-1,-1,-1,-1,-1,-1,-1,-1,-1,-1,-1,-1,-1,-1,-1,-1,-1,-1,-1,-1],"split_conditions":[2.9925E1,9.5E0,8.5E0,2.5E0,1.8560001E1,5.5E0,1.5E0,2.08325E1,5.5E0,1.05E1,2.5E0,2.5E0,3.37125E1,3.0682499E1,3.447E1,6.5E0,4.5E0,4.5E0,2.841E1,1.78025E1,1.4015E1,1.05E1,2.61375E1,-5.0926576E0,1.5E0,6.5E0,4.12875E1,9.5E0,3.2955E1,9.5E0,3.5985E1,-2.8526792E-1,9.825742E0,4.34894E0,4.6567628E-1,-2.608514E0,-0E0,-4.9255085E0,-1.8978455E0,-3.0647798E0,3.2530842E0,7.95865E-1,3.068475E0,4.258864E0,6.869171E0,-1.4052546E0,9.660313E0,1.1963912E1,6.248916E0,5.5322366E0,-1.0300287E-1,5.7678566E0,1.6664377E0,1.8234338E0,1.3920949E1,1.4767313E1,9.800122E0,3.7821405E0,1.0749465E1,8.73511E0,1.4147929E1],"split_indices":[5,9,9,3,5,9,3,5,9,9,3,9,5,5,5,9,9,9,5,5,5,9,5,0,3,9,5,9,5,9,5,0,0,0,0,0,0,0,0,0,0,0,0,0,0,0,0,0,0,0,0,0,0,0,0,0,0,0,0,0,0],"split_type":[0,0,0,0,0,0,0,0,0,0,0,0,0,0,0,0,0,0,0,0,0,0,0,0,0,0,0,0,0,0,0,0,0,0,0,0,0,0,0,0,0,0,0,0,0,0,0,0,0,0,0,0,0,0,0,0,0,0,0,0,0],"sum_hessian":[7.62E3,5.351E3,2.269E3,3.509E3,1.842E3,1.87E3,3.99E2,3.148E3,3.61E2,8.23E2,1.019E3,3.06E2,1.564E3,2.87E2,1.12E2,1.603E3,1.545E3,2.53E2,1.08E2,4.8E1,7.75E2,8.92E2,1.27E2,8E0,2.98E2,7.57E2,8.07E2,3.5E1,2.52E2,9E1,2.2E1,1.587E3,1.6E1,6.08E2,9.37E2,1.96E2,5.7E1,7.3E1,3.5E1,3.8E1,1E1,2.48E2,5.27E2,4.46E2,4.46E2,1.05E2,2.2E1,2.07E2,9.1E1,2.92E2,4.65E2,7.63E2,4.4E1,2.2E1,1.3E1,1.52E2,1E2,6.7E1,2.3E1,1.1E1,1.1E1],"tree_param":{"num_deleted":"0","num_feature":"13","num_nodes":"61","size_leaf_vector":"0"}},{"base_weights":[2.599518E1,1.4529895E1,5.301113E1,2.482091E0,2.0525015E1,3.917812E1,6.62055E1,-9.589802E0,5.1111956E0,1.06225395E1,2.3429827E1,1.4859725E1,4.2097744E1,6.706326E1,1.0638431E1,-7.828244E0,-2.1056223E1,2.6169608E0,1.4618442E1,1.4174423E1,-1.8318346E1,2.0219904E1,2.6676321E1,2.3690372E1,-1.1219261E1,3.742858E1,5.8245457E1,6.764119E1,-1.2095921E1,-5.146306E-1,1.1069676E2,-3.1263742E0,-1.0355388E1,-0E0,-2.4396498E1,4.541087E0,-6.0705895E0,-4.7146206E0,1.831531E1,1.5233546E1,-2.54558E1,-6.9737153E0,-2.903368E1,2.1208143E1,-1.8472282E1,4.1446827E1,2.2689882E1,1.5701544E1,2.972718E1,3.8333294E1,-1.7572176E1,5.4083946E1,8.683194E1,5.867084E1,7.379615E1,-1.6359344E1,6.0057373E0,-9.563866E0,7.166118E1],"categories":[],"categories_nodes":[],"categories_segments":[],"categories_sizes":[],"default_left":[true,true,true,true,true,true,true,true,true,true,true,true,true,true,true,true,true,true,true,true,true,true,true,true,false,true,true,true,true,true,false,false,false,false,false,false,false,false,false,false,false,false,false,false,false,false,false,false,false,false,false,false,false,false,false,false,false,false,false],"id":19,"left_children":[1,3,5,7,9,11,13,15,17,19,21,23,25,27,29,31,33,35,37,39,41,43,45,47,-1,49,51,53,55,57,-1,-1,-1,-1,-1,-1,-1,-1,-1,-1,-1,-1,-1,-1,-1,-1,-1,-1,-1,-1,-1,-1,-1,-1,-1,-1,-1,-1,-1],"loss_changes":[2.359126E6,3.8628338E5,4.10668E5,5.649835E4,1.02187375E5,7.76865E4,5.37995E4,5.9695273E3,3.4481957E4,8.379029E4,2.7764E4,2.8256113E4,7.1580875E4,5.3618E4,2.2361967E4,3.136088E3,2.6536719E3,1.9419484E4,2.1878309E4,3.0716172E4,1.025643E4,5.372175E4,7.8968375E4,3.4676055E3,0E0,3.929575E4,2.00665E4,5.6956E4,8.963613E2,1.182083E4,0E0,0E0,0E0,0E0,0E0,0E0,0E0,0E0,0E0,0E0,0E0,0E0,0E0,0E0,0E0,0E0,0E0,0E0,0E0,0E0,0E0,0E0,0E0,0E0,0E0,0E0,0E0,0E0,0E0],"parents":[2147483647,0,0,1,1,2,2,3,3,4,4,5,5,6,6,7,7,8,8,9,9,10,10,11,11,12,12,13,13,14,14,15,15,16,16,17,17,18,18,19,19,20,20,21,21,22,22,23,23,25,25,26,26,27,27,28,28,29,29],"right_children":[2,4,6,8,10,12,14,16,18,20,22,24,26,28,30,32,34,36,38,40,42,44,46,48,-1,50,52,54,56,58,-1,-1,-1,-1,-1,-1,-1,-1,-1,-1,-1,-1,-1,-1,-1,-1,-1,-1,-1,-1,-1,-1,-1,-1,-1,-1,-1,-1,-1],"split_conditions":[2.9925E1,1.62875E1,1.1999701E1,9.47E0,6.50235E0,3.0682499E1,4.2045E1,2.900095E1,1.950035E1,2.76525E1,2.3105E1,9.99975E0,9.99975E0,3.9999E1,2.95001E1,1.1999701E1,5.3025E0,1.5999599E1,1.0985E1,5E-1,2.91675E1,3.19992E1,2.4619999E1,6.50235E0,-1.1219262E0,4.12875E1,3.75E1,1.5999599E1,3.48475E1,5E-1,1.1069676E1,-3.1263742E-1,-1.0355388E0,-0E0,-2.4396498E0,4.5410872E-1,-6.0705894E-1,-4.7146207E-1,1.8315309E0,1.5233546E0,-2.54558E0,-6.9737154E-1,-2.903368E0,2.1208143E0,-1.8472283E0,4.144683E0,2.2689884E0,1.5701544E0,2.972718E0,3.8333294E0,-1.7572176E0,5.408395E0,8.683194E0,5.867084E0,7.3796153E0,-1.6359345E0,6.005737E-1,-9.5638657E-1,7.166118E0],"split_indices":[5,5,7,5,7,5,5,7,7,5,5,7,7,7,7,7,5,7,5,1,5,7,5,7,0,5,5,7,5,1,0,0,0,0,0,0,0,0,0,0,0,0,0,0,0,0,0,0,0,0,0,0,0,0,0,0,0,0,0],"split_type":[0,0,0,0,0,0,0,0,0,0,0,0,0,0,0,0,0,0,0,0,0,0,0,0,0,0,0,0,0,0,0,0,0,0,0,0,0,0,0,0,0,0,0,0,0,0,0,0,0,0,0,0,0,0,0,0,0,0,0],"sum_hessian":[7.62E3,5.351E3,2.269E3,1.779E3,3.572E3,1.11E3,1.159E3,3.17E2,1.462E3,8.12E2,2.76E3,1.2E2,9.9E2,1.141E3,1.8E1,2.77E2,4E1,1.16E3,3.02E2,7.24E2,8.8E1,1.393E3,1.367E3,9E1,3E1,7.71E2,2.19E2,1.133E3,8E0,1.7E1,1E0,9.9E1,1.78E2,6E0,3.4E1,9.51E2,2.09E2,4.8E1,2.54E2,7.06E2,1.8E1,4.4E1,4.4E1,1.359E3,3.4E1,2.88E2,1.079E3,4.1E1,4.9E1,7.59E2,1.2E1,1.94E2,2.5E1,4.66E2,6.67E2,7E0,1E0,1.6E1,1E0],"tree_param":{"num_deleted":"0","num_feature":"13","num_nodes":"59","size_leaf_vector":"0"}},{"base_weights":[2.3402174E1,1.559733E1,2.862145E1,1.3108935E1,1.8144735E1,2.919902E1,1.1710123E1,7.5980444E0,2.6865097E1,2.4039663E1,4.279569E0,3.017347E1,2.3294832E1,-6.429045E0,3.1813719E1,1.12707205E1,1.65114E0,3.1036825E1,2.0880308E1,1.714145E1,2.8846888E1,7.94079E0,6.8361026E-1,2.6788944E1,3.344529E1,6.0577993E0,3.978609E1,-2.6539534E1,2.4882002E1,4.865667E1,-2.1798449E1,1.3358975E1,7.8935103E0,1.7192684E1,-9.004511E0,2.8764593E1,1.1462963E1,1.3324438E1,2.0383282E1,3.110541E1,2.4039778E1,2.7188087E0,1.2518476E1,-0E0,1.2614386E0,3.0865456E1,1.2075191E1,3.10036E1,4.9137043E1,2.5349987E0,1.4269054E1,4.484709E1,2.4552044E1,-7.3002785E1,-1.2848653E1,4.4585052E1,-6.5751524E0,1.7410543E0,9.193186E1,-5.44365E1,3.0109022E0],"categories":[],"categories_nodes":[],"categories_segments":[],"categories_sizes":[],"default_left":[true,true,true,true,true,true,true,true,true,true,true,true,true,true,true,true,true,false,true,true,true,true,true,true,true,true,true,true,true,true,true,false,false,false,false,false,false,false,false,false,false,false,false,false,false,false,false,false,false,false,false,false,false,false,false,false,false,false,false,false,false],"id":20,"left_children":[1,3,5,7,9,11,13,15,17,19,21,23,25,27,29,31,33,-1,35,37,39,41,43,45,47,49,51,53,55,57,59,-1,-1,-1,-1,-1,-1,-1,-1,-1,-1,-1,-1,-1,-1,-1,-1,-1,-1,-1,-1,-1,-1,-1,-1,-1,-1,-1,-1,-1,-1],"loss_changes":[3.095575E5,1.882775E4,4.38375E4,1.17106375E5,1.2270556E5,2.4152E4,5.6251742E4,2.4095746E4,9.893125E3,3.4063938E4,5.8460137E3,4.0393E4,1.7866884E5,5.168105E4,6.724729E4,4.5129688E3,7.078453E4,0E0,1.307832E4,4.7988125E3,5.4320938E3,5.12041E3,8.982791E1,1.11122E5,7.116225E4,8.763037E3,2.3031E4,3.000964E4,2.0506914E4,1.12599016E5,1.5253278E4,0E0,0E0,0E0,0E0,0E0,0E0,0E0,0E0,0E0,0E0,0E0,0E0,0E0,0E0,0E0,0E0,0E0,0E0,0E0,0E0,0E0,0E0,0E0,0E0,0E0,0E0,0E0,0E0,0E0,0E0],"parents":[2147483647,0,0,1,1,2,2,3,3,4,4,5,5,6,6,7,7,8,8,9,9,10,10,11,11,12,12,13,13,14,14,15,15,16,16,18,18,19,19,20,20,21,21,22,22,23,23,24,24,25,25,26,26,27,27,28,28,29,29,30,30],"right_children":[2,4,6,8,10,12,14,16,18,20,22,24,26,28,30,32,34,-1,36,38,40,42,44,46,48,50,52,54,56,58,60,-1,-1,-1,-1,-1,-1,-1,-1,-1,-1,-1,-1,-1,-1,-1,-1,-1,-1,-1,-1,-1,-1,-1,-1,-1,-1,-1,-1,-1,-1],"split_conditions":[9.99975E0,6.50235E0,3.19992E1,4.5E0,4.5E0,5.5E0,2.5E0,3.0016E0,3.0016E0,1.5E0,5.5E0,2.5E0,1.5999599E1,3.59991E1,3.799905E1,2.5E0,1.5E0,3.1036825E0,5.5E0,7.9998E0,3.5E0,7.9998E0,7.9998E0,2.100115E1,2.3001099E1,1.399965E1,2.3001099E1,5E-1,3.9999E1,3.3999153E1,3.9999E1,1.3358976E0,7.8935105E-1,1.7192684E0,-9.004511E-1,2.8764594E0,1.1462964E0,1.3324438E0,2.0383282E0,3.110541E0,2.4039779E0,2.7188087E-1,1.2518476E0,-0E0,1.2614386E-1,3.0865457E0,1.207519E0,3.10036E0,4.9137044E0,2.5349987E-1,1.4269055E0,4.4847093E0,2.4552045E0,-7.3002787E0,-1.2848653E0,4.458505E0,-6.575152E-1,1.7410544E-1,9.193187E0,-5.4436502E0,3.010902E-1],"split_indices":[7,7,7,11,11,11,11,7,7,11,11,11,7,7,7,11,11,0,11,7,11,7,7,7,7,7,7,11,7,7,7,0,0,0,0,0,0,0,0,0,0,0,0,0,0,0,0,0,0,0,0,0,0,0,0,0,0,0,0,0,0],"split_type":[0,0,0,0,0,0,0,0,0,0,0,0,0,0,0,0,0,0,0,0,0,0,0,0,0,0,0,0,0,0,0,0,0,0,0,0,0,0,0,0,0,0,0,0,0,0,0,0,0,0,0,0,0,0,0,0,0,0,0,0,0],"sum_hessian":[7.62E3,3.056E3,4.564E3,1.551E3,1.505E3,4.412E3,1.52E2,1.109E3,4.42E2,1.055E3,4.5E2,3.782E3,6.3E2,8E1,7.2E1,6.84E2,4.25E2,2.57E2,1.85E2,4.36E2,6.19E2,2.21E2,2.29E2,1.865E3,1.917E3,3.09E2,3.21E2,4.9E1,3.1E1,5.5E1,1.7E1,4.19E2,2.65E2,1.73E2,2.52E2,9.9E1,8.6E1,2.04E2,2.32E2,4.16E2,2.03E2,1.05E2,1.16E2,1.06E2,1.23E2,1.459E3,4.06E2,1.662E3,2.55E2,2.18E2,9.1E1,2.39E2,8.2E1,1E1,3.9E1,1.9E1,1.2E1,2.7E1,2.8E1,7E0,1E1],"tree_param":{"num_deleted":"0","num_feature":"13","num_nodes":"61","size_leaf_vector":"0"}},{"base_weights":[2.1069836E1,-1.6151022E1,5.799595E1,-3.1623991E1,-8.744656E0,4.4551304E1,9.038954E1,-2.134236E1,-3.9257725E1,-1.2185281E1,1.0499748E0,3.363443E1,6.514877E1,1.3136644E2,7.6185036E1,-2.069793E1,-3.8831596E1,-3.7268795E1,-7.282006E1,-2.25925E1,-2.1310718E0,-5.2610593E0,5.696E1,1.9696457E1,4.2398533E1,4.1583706E1,9.125712E1,1.2508012E2,1.9184392E2,4.160435E1,9.671576E1,-1.7515326E1,-2.2887758E1,-4.2385178E1,-2.6064917E1,-9.544905E1,-5.3477283E1,5.567967E0,-3.6272167E1,-7.092617E0,5.2967754E1,-3.3950732E0,-4.7717583E1,7.909725E1,2.2153307E1,-4.398218E0,2.2156107E1,6.2986927E1,2.205265E1,-1.5738925E1,4.6010788E1,7.632886E1,1.0997262E2,1.3962234E2,1.0928472E2,2.2289667E2,1.3879538E2,-5.418257E0,6.716054E1,7.2677086E1,1.3543863E2],"categories":[],"categories_nodes":[],"categories_segments":[],"categories_sizes":[],"default_left":[true,true,true,true,true,true,true,true,true,true,true,true,true,true,true,true,false,true,true,true,true,true,true,true,true,true,true,true,true,true,true,false,false,false,false,false,false,false,false,false,false,false,false,false,false,false,false,false,false,false,false,false,false,false,false,false,false,false,false,false,false],"id":21,"left_children":[1,3,5,7,9,11,13,15,17,19,21,23,25,27,29,31,-1,33,35,37,39,41,43,45,47,49,51,53,55,57,59,-1,-1,-1,-1,-1,-1,-1,-1,-1,-1,-1,-1,-1,-1,-1,-1,-1,-1,-1,-1,-1,-1,-1,-1,-1,-1,-1,-1,-1,-1],"loss_changes":[1.0475823E7,4.3433562E5,1.660924E6,9.4938375E4,8.669855E4,6.05292E5,6.40402E5,4.5293125E3,4.3112625E4,1.98723E5,2.365205E5,2.1487838E5,5.70746E5,8.19465E4,5.87415E5,2.7494531E3,0E0,3.6388062E4,1.0039266E4,3.6030994E5,2.648176E5,4.6940062E4,4.963092E4,4.093047E4,4.52674E5,1.2639025E5,1.135125E5,4.26635E4,6.628625E3,3.771192E5,4.749085E5,0E0,0E0,0E0,0E0,0E0,0E0,0E0,0E0,0E0,0E0,0E0,0E0,0E0,0E0,0E0,0E0,0E0,0E0,0E0,0E0,0E0,0E0,0E0,0E0,0E0,0E0,0E0,0E0,0E0,0E0],"parents":[2147483647,0,0,1,1,2,2,3,3,4,4,5,5,6,6,7,7,8,8,9,9,10,10,11,11,12,12,13,13,14,14,15,15,17,17,18,18,19,19,20,20,21,21,22,22,23,23,24,24,25,25,26,26,27,27,28,28,29,29,30,30],"right_children":[2,4,6,8,10,12,14,16,18,20,22,24,26,28,30,32,-1,34,36,38,40,42,44,46,48,50,52,54,56,58,60,-1,-1,-1,-1,-1,-1,-1,-1,-1,-1,-1,-1,-1,-1,-1,-1,-1,-1,-1,-1,-1,-1,-1,-1,-1,-1,-1,-1,-1,-1],"split_conditions":[2.0115E3,4.5E0,2.583E1,1.107E1,2.829E1,9.5E0,6.5E0,3.5E0,2.419E1,9.5E0,8.5E0,1.517E1,1.599E1,3.239E1,7.5E0,7.79E0,-3.8831596E0,1.7630001E1,2.583E1,5.5E0,2.3369999E1,3.649E1,2.993E1,6.1499996E0,4.5E0,1.05E1,2.009E1,5.5E0,3.321E1,2.993E1,2.993E1,-1.7515326E0,-2.288776E0,-4.2385178E0,-2.6064918E0,-9.544906E0,-5.3477283E0,5.567967E-1,-3.6272168E0,-7.092617E-1,5.2967753E0,-3.395073E-1,-4.7717586E0,7.909725E0,2.2153308E0,-4.398218E-1,2.2156107E0,6.2986927E0,2.205265E0,-1.5738925E0,4.601079E0,7.632886E0,1.0997262E1,1.39622345E1,1.09284725E1,2.2289667E1,1.3879539E1,-5.418257E-1,6.716054E0,7.267709E0,1.3543863E1],"split_indices":[8,9,4,4,4,9,9,9,4,9,9,4,4,4,9,4,0,4,4,9,4,4,4,4,9,9,4,9,4,4,4,0,0,0,0,0,0,0,0,0,0,0,0,0,0,0,0,0,0,0,0,0,0,0,0,0,0,0,0,0,0],"split_type":[0,0,0,0,0,0,0,0,0,0,0,0,0,0,0,0,0,0,0,0,0,0,0,0,0,0,0,0,0,0,0,0,0,0,0,0,0,0,0,0,0,0,0,0,0,0,0,0,0,0,0,0,0,0,0,0,0,0,0,0,0],"sum_hessian":[7.62E3,3.795E3,3.825E3,1.227E3,2.568E3,2.705E3,1.12E3,5.25E2,7.02E2,1.901E3,6.67E2,1.77E3,9.35E2,2.86E2,8.34E2,5.09E2,1.6E1,6.65E2,3.7E1,9.33E2,9.68E2,6E2,6.7E1,6.85E2,1.085E3,4.93E2,4.42E2,2.62E2,2.4E1,3.12E2,5.22E2,2.13E2,2.96E2,4.54E2,2.11E2,1.5E1,2.2E1,3.05E2,6.28E2,8.89E2,7.9E1,5.76E2,2.4E1,4E1,2.7E1,6.3E1,6.22E2,5.38E2,5.47E2,3.5E1,4.58E2,2.49E2,1.93E2,1.32E2,1.3E2,1.3E1,1.1E1,1.1E2,2.02E2,3.24E2,1.98E2],"tree_param":{"num_deleted":"0","num_feature":"13","num_nodes":"61","size_leaf_vector":"0"}},{"base_weights":[1.8975822E1,1.6496443E1,2.1232603E1,1.7991425E1,1.142083E1,1.4125917E1,2.2441294E1,1.2537557E1,2.0165535E1,4.10459E0,1.8327087E1,2.194762E1,8.752217E0,2.374781E1,1.5959087E1,5.266667E0,1.4903905E1,2.7707384E1,1.8255373E1,7.096446E0,-1.1546478E1,2.8607107E1,1.6203255E1,4.557227E1,1.7417322E1,-3.034557E1,1.7705048E1,2.1455944E1,3.2712383E1,3.1058409E1,1.1844381E1,-2.9736488E1,7.912536E0,2.3922619E1,9.084121E0,3.756264E1,2.0501465E1,1.4470224E1,2.1392473E1,2.1041758E1,1.3682396E0,2.0353267E0,2.1979654E1,1.3579328E1,8.1824005E1,3.5771053E1,9.781422E0,-2.6221473E0,2.1892878E1,-2.4059353E1,2.2105398E1,3.620597E1,6.0878496E0,9.568166E-1,5.0435703E1,-9.392171E0,2.187251E1],"categories":[],"categories_nodes":[],"categories_segments":[],"categories_sizes":[],"default_left":[true,true,true,true,true,true,true,true,true,true,true,true,true,true,true,true,true,true,true,true,false,false,true,true,true,false,true,true,true,true,true,false,false,false,false,false,false,false,false,false,false,false,false,false,false,false,false,false,false,false,false,false,false,false,false,false,false],"id":22,"left_children":[1,3,5,7,9,11,13,15,17,19,21,23,25,27,29,31,33,35,37,39,-1,-1,41,43,45,-1,47,49,51,53,55,-1,-1,-1,-1,-1,-1,-1,-1,-1,-1,-1,-1,-1,-1,-1,-1,-1,-1,-1,-1,-1,-1,-1,-1,-1,-1],"loss_changes":[4.1915E4,2.7105312E4,3.3539125E4,3.2703688E4,4.173964E4,2.4005273E4,2.803575E4,1.3552984E4,2.7904438E4,1.9048691E4,8.411078E3,2.3834656E4,1.22223336E5,5.68595E4,3.492742E4,1.8539803E4,3.1207234E4,2.7197781E4,1.83665E4,2.7066629E4,0E0,0E0,2.8931852E4,4.0847438E4,2.7224031E4,0E0,2.4426133E4,6.719975E4,5.2654312E4,7.059887E4,9.701539E4,0E0,0E0,0E0,0E0,0E0,0E0,0E0,0E0,0E0,0E0,0E0,0E0,0E0,0E0,0E0,0E0,0E0,0E0,0E0,0E0,0E0,0E0,0E0,0E0,0E0,0E0],"parents":[2147483647,0,0,1,1,2,2,3,3,4,4,5,5,6,6,7,7,8,8,9,9,10,10,11,11,12,12,13,13,14,14,15,15,16,16,17,17,18,18,19,19,22,22,23,23,24,24,26,26,27,27,28,28,29,29,30,30],"right_children":[2,4,6,8,10,12,14,16,18,20,22,24,26,28,30,32,34,36,38,40,-1,-1,42,44,46,-1,48,50,52,54,56,-1,-1,-1,-1,-1,-1,-1,-1,-1,-1,-1,-1,-1,-1,-1,-1,-1,-1,-1,-1,-1,-1,-1,-1,-1,-1],"split_conditions":[9.5E0,7.5E0,5E-1,2.5E0,8.5E0,1.35E1,5.5E0,1.5E0,3.5E0,5.5E0,5E-1,5E-1,1.45E1,4.5E0,1.15E1,5E-1,3.5E0,2.5E0,2.5E0,5E-1,-1.1546478E0,2.8607109E0,2.5E0,1.1E1,1.05E1,-3.034557E0,5E-1,5E-1,1.85E1,1.05E1,1.45E1,-2.9736488E0,7.912536E-1,2.392262E0,9.084121E-1,3.7562642E0,2.0501466E0,1.4470224E0,2.1392474E0,2.1041758E0,1.3682397E-1,2.0353268E-1,2.1979654E0,1.3579328E0,8.182401E0,3.5771053E0,9.781422E-1,-2.6221475E-1,2.189288E0,-2.4059353E0,2.2105398E0,3.6205971E0,6.08785E-1,9.568166E-2,5.0435705E0,-9.392171E-1,2.187251E0],"split_indices":[10,10,11,10,10,10,11,11,10,11,11,2,10,11,10,2,11,11,11,2,0,0,11,10,10,0,2,2,10,10,10,0,0,0,0,0,0,0,0,0,0,0,0,0,0,0,0,0,0,0,0,0,0,0,0,0,0],"split_type":[0,0,0,0,0,0,0,0,0,0,0,0,0,0,0,0,0,0,0,0,0,0,0,0,0,0,0,0,0,0,0,0,0,0,0,0,0,0,0,0,0,0,0,0,0,0,0,0,0,0,0,0,0,0,0,0,0],"sum_hessian":[7.62E3,3.637E3,3.983E3,2.806E3,8.31E2,5.82E2,3.401E3,8.03E2,2.003E3,4.05E2,4.26E2,2.35E2,3.47E2,2.827E3,5.74E2,1.99E2,6.04E2,4.01E2,1.602E3,3.41E2,6.4E1,7E1,3.56E2,3.6E1,1.99E2,6.4E1,2.83E2,2.255E3,5.72E2,1.21E2,4.53E2,1.3E1,1.86E2,2.35E2,3.69E2,1.67E2,2.34E2,7.3E2,8.72E2,9.8E1,2.43E2,1.04E2,2.52E2,2E1,1.6E1,5.7E1,1.42E2,4.8E1,2.35E2,3.1E1,2.224E3,5.05E2,6.7E1,4.8E1,7.3E1,1.45E2,3.08E2],"tree_param":{"num_deleted":"0","num_feature":"13","num_nodes":"57","size_leaf_vector":"0"}},{"base_weights":[1.7085623E1,3.4742626E1,-1.2052274E0,2.027919E0,4.9628525E1,7.064092E0,-1.5399574E1,-4.535283E1,3.6894033E0,7.911655E1,3.5864925E1,2.2564025E0,1.984578E1,-1.06801405E1,-2.9429909E1,-5.2861786E1,-3.334973E1,1.2379907E1,-4.6568723E0,8.289797E1,6.092623E1,4.7870216E1,2.910801E1,8.316669E0,-2.5458682E0,2.637775E1,-3.6650243E0,7.3267215E-1,-1.3130685E1,-3.804733E1,-1.6860792E1,-2.0854542E0,-4.3652298E1,1.3581367E1,-1.9543526E1,-3.4227767E0,-3.6413708E1,7.254609E1,9.1051445E1,3.4306217E1,7.543847E1,2.7793804E1,5.7169315E1,1.8913153E1,3.328178E1,4.5960126E0,2.3525843E1,-1.6722455E0,-3.1208155E1,4.5442875E1,2.2231401E1,-2.7936265E0,-3.9484776E1,9.297454E0,-1.2163539E1,-1.7255749E1,-5.7563667E0,-3.2306835E1,-4.8431892E1,-1.3656511E1,-2.3532776E1],"categories":[],"categories_nodes":[],"categories_segments":[],"categories_sizes":[],"default_left":[true,true,true,true,true,true,true,true,true,true,true,true,true,true,true,false,true,true,true,true,true,true,true,true,true,true,true,true,true,true,true,false,false,false,false,false,false,false,false,false,false,false,false,false,false,false,false,false,false,false,false,false,false,false,false,false,false,false,false,false,false],"id":23,"left_children":[1,3,5,7,9,11,13,15,17,19,21,23,25,27,29,-1,31,33,35,37,39,41,43,45,47,49,51,53,55,57,59,-1,-1,-1,-1,-1,-1,-1,-1,-1,-1,-1,-1,-1,-1,-1,-1,-1,-1,-1,-1,-1,-1,-1,-1,-1,-1,-1,-1,-1,-1],"loss_changes":[2.4616678E6,1.8879215E6,4.3965384E5,9.531965E4,1.0776335E6,1.4512578E5,9.059544E4,1.0703125E3,8.5289016E4,5.17725E4,1.4539175E5,5.016522E4,9.9531234E4,2.9052102E4,3.6285812E4,0E0,5.5715312E3,2.229814E4,2.295239E4,5.06725E4,5.4261938E4,1.1947175E5,4.8505625E4,4.2730805E4,2.365743E4,3.8312625E4,3.867978E3,2.0297371E4,2.5588E4,9.788875E3,2.363918E3,0E0,0E0,0E0,0E0,0E0,0E0,0E0,0E0,0E0,0E0,0E0,0E0,0E0,0E0,0E0,0E0,0E0,0E0,0E0,0E0,0E0,0E0,0E0,0E0,0E0,0E0,0E0,0E0,0E0,0E0],"parents":[2147483647,0,0,1,1,2,2,3,3,4,4,5,5,6,6,7,7,8,8,9,9,10,10,11,11,12,12,13,13,14,14,16,16,17,17,18,18,19,19,20,20,21,21,22,22,23,23,24,24,25,25,26,26,27,27,28,28,29,29,30,30],"right_children":[2,4,6,8,10,12,14,16,18,20,22,24,26,28,30,-1,32,34,36,38,40,42,44,46,48,50,52,54,56,58,60,-1,-1,-1,-1,-1,-1,-1,-1,-1,-1,-1,-1,-1,-1,-1,-1,-1,-1,-1,-1,-1,-1,-1,-1,-1,-1,-1,-1,-1,-1],"split_conditions":[6.25E1,1.5E0,8.25E1,2.15E1,4.25E1,3.5E0,9.35E1,1.55E1,4.55E1,4.05E1,5.05E1,7.05E1,7.9E1,1.5E0,3.5E0,-5.2861786E0,1.65E1,5E-1,6.15E1,3.35E1,2.5E0,2.5E0,2.5E0,6.95E1,5E-1,6.55E1,5E-1,9E1,3.5E0,2.5E0,9.7E1,-2.0854543E-1,-4.36523E0,1.3581367E0,-1.9543526E0,-3.4227768E-1,-3.6413708E0,7.254609E0,9.1051445E0,3.4306219E0,7.543847E0,2.7793806E0,5.716932E0,1.8913153E0,3.3281782E0,4.5960125E-1,2.3525844E0,-1.6722456E-1,-3.1208155E0,4.5442877E0,2.2231402E0,-2.7936265E-1,-3.9484775E0,9.297454E-1,-1.2163539E0,-1.7255749E0,-5.756367E-1,-3.2306836E0,-4.8431892E0,-1.3656511E0,-2.3532777E0],"split_indices":[6,0,6,6,6,0,6,6,6,6,6,6,6,0,0,0,6,1,6,6,0,0,0,6,1,6,1,6,0,0,6,0,0,0,0,0,0,0,0,0,0,0,0,0,0,0,0,0,0,0,0,0,0,0,0,0,0,0,0,0,0],"split_type":[0,0,0,0,0,0,0,0,0,0,0,0,0,0,0,0,0,0,0,0,0,0,0,0,0,0,0,0,0,0,0,0,0,0,0,0,0,0,0,0,0,0,0,0,0,0,0,0,0,0,0,0,0,0,0,0,0,0,0,0,0],"sum_hessian":[7.62E3,3.877E3,3.743E3,1.213E3,2.664E3,2.365E3,1.378E3,4E1,1.173E3,8.46E2,1.818E3,1.72E3,6.45E2,1.033E3,3.45E2,2.2E1,1.8E1,5.75E2,5.98E2,6.97E2,1.49E2,6.52E2,1.166E3,7.61E2,9.59E2,5.05E2,1.4E2,1.82E2,8.51E2,2.03E2,1.42E2,5E0,1.3E1,5.55E2,2E1,5.77E2,2.1E1,3.12E2,3.85E2,5.4E1,9.5E1,2.08E2,4.44E2,3.41E2,8.25E2,6.13E2,1.48E2,9.32E2,2.7E1,8.8E1,4.17E2,1.38E2,2E0,1.1E2,7.2E1,5.44E2,3.07E2,1.34E2,6.9E1,9.9E1,4.3E1],"tree_param":{"num_deleted":"0","num_feature":"13","num_nodes":"61","size_leaf_vector":"0"}},{"base_weights":[1.5378412E1,-1.769805E1,4.8194115E1,-1.9305355E1,-7.605671E0,5.138502E1,2.9591427E1,-1.3705133E1,-2.04032E1,-4.005053E0,-1.2965429E1,4.238563E1,5.5935364E1,2.5511023E1,4.4203228E1,-1.7319944E1,-8.953139E0,-2.324814E1,-1.6325739E1,-7.5196567E0,8.753011E-1,-3.5522324E1,-5.2044053E0,4.7644398E1,3.309826E1,4.8721363E1,6.571849E1,3.8849735E1,1.9753906E1,5.971998E1,4.084347E0,-1.2705833E1,-5.737028E1,1.2357676E1,-1.3007429E1,-2.5358583E1,-1.9602737E1,-1.4671691E1,-2.791697E1,-1.541654E0,-2.0410427E1,1.636503E1,-1.4698329E0,7.4940577E0,-9.12704E0,2.0519806E1,5.195711E1,2.2768158E1,3.931407E1,5.3660698E1,4.3583435E1,6.041174E1,8.309074E1,1.508936E1,5.3500225E1,-4.4331366E-1,3.095955E1,4.2869072E1,7.057809E1],"categories":[],"categories_nodes":[],"categories_segments":[],"categories_sizes":[],"default_left":[true,true,true,true,true,true,true,true,true,true,true,true,true,true,true,true,true,true,true,true,true,false,true,true,true,true,true,true,true,true,false,false,false,false,false,false,false,false,false,false,false,false,false,false,false,false,false,false,false,false,false,false,false,false,false,false,false,false,false],"id":24,"left_children":[1,3,5,7,9,11,13,15,17,19,21,23,25,27,29,31,33,35,37,39,41,-1,43,45,47,49,51,53,55,57,-1,-1,-1,-1,-1,-1,-1,-1,-1,-1,-1,-1,-1,-1,-1,-1,-1,-1,-1,-1,-1,-1,-1,-1,-1,-1,-1,-1,-1],"loss_changes":[8.273199E6,6.1161E4,2.24779E5,1.950225E4,9.890752E3,1.30307E5,3.1742406E4,8.875258E3,3.0927875E4,5.4932188E3,3.5996355E4,5.13885E4,1.483795E5,3.2665656E4,7.444233E4,5.493328E4,2.064409E4,1.14089375E4,2.0791031E4,1.4005311E4,4.9679707E3,0E0,7.9051216E3,8.00955E4,2.4296469E4,2.841125E4,7.789925E4,4.4456156E4,7.0931625E4,1.1758219E4,0E0,0E0,0E0,0E0,0E0,0E0,0E0,0E0,0E0,0E0,0E0,0E0,0E0,0E0,0E0,0E0,0E0,0E0,0E0,0E0,0E0,0E0,0E0,0E0,0E0,0E0,0E0,0E0,0E0],"parents":[2147483647,0,0,1,1,2,2,3,3,4,4,5,5,6,6,7,7,8,8,9,9,10,10,11,11,12,12,13,13,14,14,15,15,16,16,17,17,18,18,19,19,20,20,22,22,23,23,24,24,25,25,26,26,27,27,28,28,29,29],"right_children":[2,4,6,8,10,12,14,16,18,20,22,24,26,28,30,32,34,36,38,40,42,-1,44,46,48,50,52,54,56,58,-1,-1,-1,-1,-1,-1,-1,-1,-1,-1,-1,-1,-1,-1,-1,-1,-1,-1,-1,-1,-1,-1,-1,-1,-1,-1,-1,-1,-1],"split_conditions":[2.0115E3,5.5E0,5.5E0,5E-1,1.25E1,1.5E0,1.55E1,1.15E1,3.5E0,7.5E0,1.35E1,1.25E1,1.15E1,4.5E0,1.85E1,1.05E1,1.25E1,1.25E1,1.75E1,5.5E0,8.5E0,-3.5522325E0,1.55E1,2.5E0,1.55E1,3.5E0,4.5E0,1.5E0,8.5E0,1.65E1,4.084347E-1,-1.2705834E0,-5.737028E0,1.2357676E0,-1.300743E0,-2.5358584E0,-1.9602737E0,-1.4671692E0,-2.791697E0,-1.541654E-1,-2.0410428E0,1.6365031E0,-1.469833E-1,7.494058E-1,-9.12704E-1,2.0519807E0,5.195711E0,2.276816E0,3.9314072E0,5.36607E0,4.3583436E0,6.041174E0,8.309073E0,1.508936E0,5.350023E0,-4.4331368E-2,3.0959551E0,4.286907E0,7.057809E0],"split_indices":[8,11,11,11,10,11,10,10,11,10,10,10,10,10,10,10,10,10,10,10,10,0,10,10,10,11,11,10,10,10,0,0,0,0,0,0,0,0,0,0,0,0,0,0,0,0,0,0,0,0,0,0,0,0,0,0,0,0,0],"split_type":[0,0,0,0,0,0,0,0,0,0,0,0,0,0,0,0,0,0,0,0,0,0,0,0,0,0,0,0,0,0,0,0,0,0,0,0,0,0,0,0,0,0,0,0,0,0,0,0,0,0,0,0,0,0,0,0,0,0,0],"sum_hessian":[7.62E3,3.795E3,3.825E3,3.272E3,5.23E2,3.263E3,5.62E2,5.4E2,2.732E3,3.15E2,2.08E2,1.1E3,2.163E3,4.42E2,1.2E2,3.04E2,2.36E2,1.605E3,1.127E3,1.84E2,1.31E2,5.2E1,1.56E2,6.99E2,4.01E2,1.249E3,9.14E2,1.31E2,3.11E2,8.6E1,3.4E1,2.74E2,3E1,3.7E1,1.99E2,1.011E3,5.94E2,9.89E2,1.38E2,1.27E2,5.7E1,1.7E1,1.14E2,3.6E1,1.2E2,9.7E1,6.02E2,1.53E2,2.48E2,6.31E2,6.18E2,7.04E2,2.1E2,5.1E1,8E1,1.11E2,2E2,3.6E1,5E1],"tree_param":{"num_deleted":"0","num_feature":"13","num_nodes":"59","size_leaf_vector":"0"}},{"base_weights":[1.3846075E1,-6.8835304E1,4.7265217E1,-4.2356068E1,-7.707084E1,3.7949708E0,9.060244E1,-4.5286613E1,-2.4113781E1,-8.379931E1,-3.8058155E1,1.3443548E1,-2.668028E1,1.15824554E2,8.51281E0,-3.617329E1,-5.2754066E1,-2.9667048E1,-1.8541143E1,-8.885238E1,-7.380191E1,-4.593346E1,-2.9861387E1,-2.4647887E0,6.583446E1,-1.2281295E1,-3.9827934E1,8.6444115E1,2.1483461E2,3.9092876E1,-2.1030853E1,-4.6121185E1,-5.5532642E1,-7.379088E1,-9.176165E1,-6.2688225E1,-7.865655E1,-3.4701897E1,-2.057656E1,3.784614E1,-1.2532553E1,-6.3701425E0,9.021642E1,-3.561217E1,-4.9947686E0,-3.196524E1,-4.772183E1,1.6019188E2,6.830401E1,2.5445264E2,1.2972705E2,5.5721478E1,2.1723204E1,-5.8498044E0,-3.5747818E1],"categories":[],"categories_nodes":[],"categories_segments":[],"categories_sizes":[],"default_left":[true,true,true,true,true,true,true,true,true,true,true,true,true,true,true,false,true,false,false,true,true,false,true,true,true,true,true,true,true,true,true,false,false,false,false,false,false,false,false,false,false,false,false,false,false,false,false,false,false,false,false,false,false,false,false],"id":25,"left_children":[1,3,5,7,9,11,13,15,17,19,21,23,25,27,29,-1,31,-1,-1,33,35,-1,37,39,41,43,45,47,49,51,53,-1,-1,-1,-1,-1,-1,-1,-1,-1,-1,-1,-1,-1,-1,-1,-1,-1,-1,-1,-1,-1,-1,-1,-1],"loss_changes":[2.1060936E7,4.73988E5,1.0224413E7,2.61735E4,4.34486E5,7.973763E5,5.625318E6,2.7758375E4,1.288832E3,6.3803E4,1.38793125E4,1.7177075E6,1.2242178E5,6.02614E6,5.7920894E5,0E0,9.19125E2,0E0,0E0,3.28065E4,1.9823E4,0E0,4.3510703E3,6.418556E5,8.464484E5,5.262639E4,1.8780562E4,2.133929E6,1.564752E6,8.8997625E4,7.2209484E4,0E0,0E0,0E0,0E0,0E0,0E0,0E0,0E0,0E0,0E0,0E0,0E0,0E0,0E0,0E0,0E0,0E0,0E0,0E0,0E0,0E0,0E0,0E0,0E0],"parents":[2147483647,0,0,1,1,2,2,3,3,4,4,5,5,6,6,7,7,8,8,9,9,10,10,11,11,12,12,13,13,14,14,16,16,19,19,20,20,22,22,23,23,24,24,25,25,26,26,27,27,28,28,29,29,30,30],"right_children":[2,4,6,8,10,12,14,16,18,20,22,24,26,28,30,-1,32,-1,-1,34,36,-1,38,40,42,44,46,48,50,52,54,-1,-1,-1,-1,-1,-1,-1,-1,-1,-1,-1,-1,-1,-1,-1,-1,-1,-1,-1,-1,-1,-1,-1,-1],"split_conditions":[6.5E0,1.5E0,2.0115E3,5.5E0,5.5E0,1.95E1,1.95E1,2.0115E3,2.0115E3,3.5E0,2.0115E3,1.65E1,2.15E1,1.65E1,2.15E1,-3.6173291E0,1.5E0,-2.9667048E0,-1.8541144E0,5E-1,1.5E0,-4.593346E0,3.5E0,8.5E0,1.5E0,1.5E0,2.25E1,8.5E0,1.85E1,2.05E1,2.25E1,-4.6121187E0,-5.553264E0,-7.379088E0,-9.176166E0,-6.2688227E0,-7.865655E0,-3.4701898E0,-2.057656E0,3.7846143E0,-1.2532552E0,-6.3701427E-1,9.021643E0,-3.561217E0,-4.9947688E-1,-3.1965241E0,-4.772183E0,1.6019188E1,6.830401E0,2.5445265E1,1.2972705E1,5.572148E0,2.1723204E0,-5.849804E-1,-3.574782E0],"split_indices":[12,0,8,12,12,12,12,8,8,0,8,12,12,12,12,0,12,0,0,12,12,0,0,12,0,0,12,12,12,12,12,0,0,0,0,0,0,0,0,0,0,0,0,0,0,0,0,0,0,0,0,0,0,0,0],"split_type":[0,0,0,0,0,0,0,0,0,0,0,0,0,0,0,0,0,0,0,0,0,0,0,0,0,0,0,0,0,0,0,0,0,0,0,0,0,0,0,0,0,0,0,0,0,0,0,0,0,0,0,0,0,0,0],"sum_hessian":[7.62E3,2.193E3,5.427E3,5.22E2,1.671E3,2.71E3,2.717E3,4.48E2,7.4E1,1.424E3,2.47E2,2.059E3,6.51E2,2.078E3,6.39E2,2.05E2,2.43E2,3.4E1,4E1,9.4E2,4.84E2,1.23E2,1.24E2,1.58E3,4.79E2,3.12E2,3.39E2,1.604E3,4.74E2,3.14E2,3.25E2,7.8E1,1.65E2,1.57E2,7.83E2,1.52E2,3.32E2,7.9E1,4.5E1,3.15E2,1.265E3,1.21E2,3.58E2,7.3E1,2.39E2,1.73E2,1.66E2,3.15E2,1.289E3,3.22E2,1.52E2,1.59E2,1.55E2,1.61E2,1.64E2],"tree_param":{"num_deleted":"0","num_feature":"13","num_nodes":"55","size_leaf_vector":"0"}},{"base_weights":[1.2460329E1,-6.198387E1,4.2550255E1,-3.816368E1,-6.9391754E1,5.8416588E1,-8.330792E0,-3.171324E1,-5.119784E1,-7.544302E1,-3.4301212E1,3.8109497E1,1.261416E2,1.2148127E1,-2.7641998E1,-3.3905827E1,-1.7548044E1,-5.478584E1,-2.8696112E1,-8.268416E1,-6.6691376E1,-3.314303E1,-6.026376E1,8.930557E1,2.5446941E1,4.5848553E1,1.5305264E2,-1.2056188E1,2.4832552E1,-1.7529673E1,-3.7762802E1,-3.086163E1,-3.642499E1,-4.649756E1,-5.8640625E1,-7.249918E1,-8.901262E1,-4.995603E1,-6.994635E1,-3.918466E1,-2.8552204E1,3.0249054E1,1.4657535E2,1.4900532E1,4.6424156E1,9.367331E0,6.489016E1,1.8291496E2,9.213601E1,-8.339681E0,-2.099171E1,3.3507927E1,-7.5647837E-1,-2.7640594E1,-1.2213572E1,-2.6431522E1,-3.998708E1],"categories":[],"categories_nodes":[],"categories_segments":[],"categories_sizes":[],"default_left":[true,true,true,true,true,true,true,true,true,true,true,true,true,true,true,true,false,true,false,true,true,true,false,true,true,true,true,true,true,true,true,false,false,false,false,false,false,false,false,false,false,false,false,false,false,false,false,false,false,false,false,false,false,false,false,false,false],"id":26,"left_children":[1,3,5,7,9,11,13,15,17,19,21,23,25,27,29,31,-1,33,-1,35,37,39,-1,41,43,45,47,49,51,53,55,-1,-1,-1,-1,-1,-1,-1,-1,-1,-1,-1,-1,-1,-1,-1,-1,-1,-1,-1,-1,-1,-1,-1,-1,-1,-1],"loss_changes":[1.707364E7,3.83423E5,4.382988E6,4.1519E4,3.51351E5,5.684533E6,5.1104588E5,9.854125E3,1.1398906E4,8.32965E4,4.5258125E3,2.0613305E6,2.052367E6,1.9292734E5,6.684447E4,5.343125E2,0E0,8.8659375E2,0E0,4.1884E4,3.076875E4,4.8605E3,0E0,2.127937E6,5.639485E5,1.660629E5,1.279243E6,6.70475E3,9.181458E4,1.7270344E4,6.621375E3,0E0,0E0,0E0,0E0,0E0,0E0,0E0,0E0,0E0,0E0,0E0,0E0,0E0,0E0,0E0,0E0,0E0,0E0,0E0,0E0,0E0,0E0,0E0,0E0,0E0,0E0],"parents":[2147483647,0,0,1,1,2,2,3,3,4,4,5,5,6,6,7,7,8,8,9,9,10,10,11,11,12,12,13,13,14,14,15,15,17,17,19,19,20,20,21,21,23,23,24,24,25,25,26,26,27,27,28,28,29,29,30,30],"right_children":[2,4,6,8,10,12,14,16,18,20,22,24,26,28,30,32,-1,34,-1,36,38,40,-1,42,44,46,48,50,52,54,56,-1,-1,-1,-1,-1,-1,-1,-1,-1,-1,-1,-1,-1,-1,-1,-1,-1,-1,-1,-1,-1,-1,-1,-1,-1,-1],"split_conditions":[6.5E0,3.5E0,1.95E1,2.5E0,5.5E0,1.65E1,2.15E1,5.5E0,5.5E0,8.5E0,5E-1,8.5E0,3.5E0,4.5E0,2.25E1,1.5E0,-1.7548045E0,1.5E0,-2.8696113E0,5.5E0,5E-1,7.5E0,-6.0263762E0,7.5E0,8.5E0,1.5E0,1.85E1,3.5E0,1.05E1,4.5E0,2.5E0,-3.086163E0,-3.6424992E0,-4.649756E0,-5.864063E0,-7.2499185E0,-8.901262E0,-4.995603E0,-6.994635E0,-3.9184663E0,-2.8552206E0,3.0249054E0,1.4657535E1,1.4900532E0,4.6424155E0,9.3673307E-1,6.489016E0,1.8291496E1,9.213601E0,-8.339681E-1,-2.0991712E0,3.3507926E0,-7.564784E-2,-2.7640595E0,-1.2213572E0,-2.6431522E0,-3.998708E0],"split_indices":[12,9,12,9,12,12,12,12,12,9,1,12,9,9,12,9,0,12,0,9,12,9,0,12,9,9,12,9,9,9,9,0,0,0,0,0,0,0,0,0,0,0,0,0,0,0,0,0,0,0,0,0,0,0,0,0,0],"split_type":[0,0,0,0,0,0,0,0,0,0,0,0,0,0,0,0,0,0,0,0,0,0,0,0,0,0,0,0,0,0,0,0,0,0,0,0,0,0,0,0,0,0,0,0,0,0,0,0,0,0,0,0,0,0,0,0,0],"sum_hessian":[7.62E3,2.193E3,5.427E3,5.22E2,1.671E3,4.137E3,1.29E3,3.52E2,1.7E2,1.424E3,2.47E2,3.184E3,9.53E2,6.26E2,6.64E2,3.03E2,4.9E1,1.45E2,2.5E1,7.74E2,6.5E2,2.39E2,8E0,6.3E2,2.554E3,2.4E2,7.13E2,2.15E2,4.11E2,3.34E2,3.3E2,1.45E2,1.58E2,5.1E1,9.4E1,3.02E2,4.72E2,1.09E2,5.41E2,9.9E1,1.4E2,3.11E2,3.19E2,1.701E3,8.53E2,8.3E1,1.57E2,4.77E2,2.36E2,1.54E2,6.1E1,3.07E2,1.04E2,1.13E2,2.21E2,5.7E1,2.73E2],"tree_param":{"num_deleted":"0","num_feature":"13","num_nodes":"57","size_leaf_vector":"0"}},{"base_weights":[1.1210839E1,-1.5466591E1,3.7678772E1,-1.9159754E1,-4.721516E0,2.1197077E1,4.31963E1,-2.3894974E1,-1.6857622E1,4.42755E0,-1.2819005E1,3.0278885E0,2.5829103E1,3.944591E1,4.6600037E1,-2.2327374E1,-3.6713757E1,-2.0168001E1,-7.54561E0,-3.383619E-1,1.8857779E1,-7.9898973E0,-1.49329195E1,-2.7805247E0,9.398822E0,2.2076603E1,4.006609E1,4.3269825E1,2.6019485E1,3.641857E1,5.1458088E1,-1.9737297E1,-2.3342607E1,-2.1084791E1,-1.6570208E1,-4.869819E-1,-9.363727E0,-1.4091626E1,2.124862E0,1.4644204E1,2.223926E1,-1.1878533E1,-5.1100785E-1,-1.7806221E1,-7.164049E0,2.1760535E0,-8.278019E0,5.5205984E0,1.27228565E1,2.8528692E1,1.9827263E1,5.0050167E1,2.0808487E1,5.777796E1,3.595104E1,1.1774136E1,3.210847E1,3.2270237E1,6.889928E1,5.7686832E1,2.8277151E1],"categories":[],"categories_nodes":[],"categories_segments":[],"categories_sizes":[],"default_left":[true,true,true,true,true,true,true,true,true,true,true,true,true,true,true,true,false,true,true,true,true,true,true,true,true,true,true,true,true,true,true,false,false,false,false,false,false,false,false,false,false,false,false,false,false,false,false,false,false,false,false,false,false,false,false,false,false,false,false,false,false],"id":27,"left_children":[1,3,5,7,9,11,13,15,17,19,21,23,25,27,29,31,-1,33,35,37,39,41,43,45,47,49,51,53,55,57,59,-1,-1,-1,-1,-1,-1,-1,-1,-1,-1,-1,-1,-1,-1,-1,-1,-1,-1,-1,-1,-1,-1,-1,-1,-1,-1,-1,-1,-1,-1],"loss_changes":[5.3819665E6,1.5030856E5,3.463695E5,2.9974438E4,7.222486E4,8.059531E4,3.38745E4,1.7077062E4,5.829475E4,3.1620926E4,4.9291562E3,7.3823047E3,3.9417094E4,6.85705E4,7.119275E4,1.2725938E3,0E0,3.9050625E3,6.3393047E3,1.1803425E4,9.2977344E2,4.5523467E3,7.5918047E3,2.885655E3,9.7200586E2,7.7891562E3,2.8628516E4,1.10069375E5,2.5812234E4,6.2383688E4,1.43197E5,0E0,0E0,0E0,0E0,0E0,0E0,0E0,0E0,0E0,0E0,0E0,0E0,0E0,0E0,0E0,0E0,0E0,0E0,0E0,0E0,0E0,0E0,0E0,0E0,0E0,0E0,0E0,0E0,0E0,0E0],"parents":[2147483647,0,0,1,1,2,2,3,3,4,4,5,5,6,6,7,7,8,8,9,9,10,10,11,11,12,12,13,13,14,14,15,15,17,17,18,18,19,19,20,20,21,21,22,22,23,23,24,24,25,25,26,26,27,27,28,28,29,29,30,30],"right_children":[2,4,6,8,10,12,14,16,18,20,22,24,26,28,30,32,-1,34,36,38,40,42,44,46,48,50,52,54,56,58,60,-1,-1,-1,-1,-1,-1,-1,-1,-1,-1,-1,-1,-1,-1,-1,-1,-1,-1,-1,-1,-1,-1,-1,-1,-1,-1,-1,-1,-1,-1],"split_conditions":[2.0115E3,3.5E0,1.5E0,1.5E0,9.5E0,4.5E0,9.5E0,1.75E1,1.45E1,7.5E0,1.25E1,2.5E0,1.65E1,7.5E0,2.5E0,5.5E0,-3.6713758E0,1.15E1,1.55E1,1.5E0,8.5E0,1.15E1,1.75E1,1.5E0,3.5E0,7.5E0,1.85E1,2.5E0,2.5E0,1.85E1,1.75E1,-1.9737297E0,-2.3342607E0,-2.1084793E0,-1.6570208E0,-4.869819E-2,-9.363727E-1,-1.4091626E0,2.124862E-1,1.4644204E0,2.223926E0,-1.1878533E0,-5.1100787E-2,-1.7806221E0,-7.164049E-1,2.1760535E-1,-8.278019E-1,5.520598E-1,1.2722857E0,2.8528693E0,1.9827263E0,5.005017E0,2.0808487E0,5.7777963E0,3.595104E0,1.1774136E0,3.2108471E0,3.2270238E0,6.889928E0,5.7686834E0,2.8277152E0],"split_indices":[8,0,0,0,10,10,10,10,10,10,10,10,10,10,0,10,0,10,10,10,10,10,10,10,10,10,10,0,0,10,10,0,0,0,0,0,0,0,0,0,0,0,0,0,0,0,0,0,0,0,0,0,0,0,0,0,0,0,0,0,0],"split_type":[0,0,0,0,0,0,0,0,0,0,0,0,0,0,0,0,0,0,0,0,0,0,0,0,0,0,0,0,0,0,0,0,0,0,0,0,0,0,0,0,0,0,0,0,0,0,0,0,0,0,0,0,0,0,0,0,0,0,0,0,0],"sum_hessian":[7.62E3,3.795E3,3.825E3,2.823E3,9.72E2,9.61E2,2.864E3,9.19E2,1.904E3,4.56E2,5.16E2,1.96E2,7.65E2,1.37E3,1.494E3,8.22E2,9.7E1,1.403E3,5.01E2,3.43E2,1.13E2,1.6E2,3.56E2,1.02E2,9.4E1,6.08E2,1.57E2,1.064E3,3.06E2,4.86E2,1.008E3,2.4E2,5.82E2,1.112E3,2.91E2,1.04E2,3.97E2,5.2E1,2.91E2,5.4E1,5.9E1,1.04E2,5.6E1,2.58E2,9.8E1,5.3E1,4.9E1,4.6E1,4.8E1,1.53E2,4.55E2,1.02E2,5.5E1,3.54E2,7.1E2,9.3E1,2.13E2,4.33E2,5.3E1,7.93E2,2.15E2],"tree_param":{"num_deleted":"0","num_feature":"13","num_nodes":"61","size_leaf_vector":"0"}},{"base_weights":[1.0094433E1,-5.6965336E1,3.7200005E1,-3.6217834E1,-6.879219E1,4.918207E1,-1.7632965E1,-2.8332294E1,-4.62756E1,-6.123822E1,-9.366579E1,3.0244131E1,8.3247444E1,-8.621399E0,-3.5082558E1,-1.9344986E1,-3.2893578E1,-4.975072E1,-2.26748E1,-6.624388E1,-3.3595222E1,-9.835749E1,-4.5977604E1,7.927623E1,1.6383059E1,3.6752827E1,1.15230736E2,-1.8916376E1,2.8504477E0,-3.1502434E1,-7.234238E1,-2.192984E1,-7.9755816E0,-2.0796995E1,-3.570029E1,-3.684344E1,-5.498458E1,-2.5120768E1,-8.445079E0,-5.5658264E1,-7.0786766E1,-4.4760944E1,-2.9996048E1,-9.1932594E1,-1.1811732E2,-3.5216736E1,-7.1263016E1,2.6251204E1,1.3069664E2,2.3415075E1,-9.219717E0,5.7006145E1,8.715401E0,1.4411917E2,6.724551E1,-1.2038181E1,-2.4696913E1,1.2810353E1,-7.0627284E0,-2.1273054E1,-3.520273E1],"categories":[],"categories_nodes":[],"categories_segments":[],"categories_sizes":[],"default_left":[true,true,true,true,true,true,true,true,true,true,true,true,true,true,true,true,true,true,true,true,true,true,true,true,true,true,true,true,true,true,false,false,false,false,false,false,false,false,false,false,false,false,false,false,false,false,false,false,false,false,false,false,false,false,false,false,false,false,false,false,false],"id":28,"left_children":[1,3,5,7,9,11,13,15,17,19,21,23,25,27,29,31,33,35,37,39,41,43,45,47,49,51,53,55,57,59,-1,-1,-1,-1,-1,-1,-1,-1,-1,-1,-1,-1,-1,-1,-1,-1,-1,-1,-1,-1,-1,-1,-1,-1,-1,-1,-1,-1,-1,-1,-1],"loss_changes":[1.3854563E7,5.34817E5,3.567445E6,6.131225E4,2.55016E5,2.870393E6,1.5242019E5,1.7329406E4,2.6771125E4,1.45387E5,6.6302E4,1.9449055E6,2.360143E6,7.627252E4,4.083625E4,4.0812188E3,8.7761875E3,1.7525E4,1.0880508E3,3.846075E4,4.621078E3,2.42385E4,4.8604336E3,1.7154642E6,4.0274525E5,3.67949E5,1.294013E6,1.2853625E4,3.0261912E4,1.01933125E4,0E0,0E0,0E0,0E0,0E0,0E0,0E0,0E0,0E0,0E0,0E0,0E0,0E0,0E0,0E0,0E0,0E0,0E0,0E0,0E0,0E0,0E0,0E0,0E0,0E0,0E0,0E0,0E0,0E0,0E0,0E0],"parents":[2147483647,0,0,1,1,2,2,3,3,4,4,5,5,6,6,7,7,8,8,9,9,10,10,11,11,12,12,13,13,14,14,15,15,16,16,17,17,18,18,19,19,20,20,21,21,22,22,23,23,24,24,25,25,26,26,27,27,28,28,29,29],"right_children":[2,4,6,8,10,12,14,16,18,20,22,24,26,28,30,32,34,36,38,40,42,44,46,48,50,52,54,56,58,60,-1,-1,-1,-1,-1,-1,-1,-1,-1,-1,-1,-1,-1,-1,-1,-1,-1,-1,-1,-1,-1,-1,-1,-1,-1,-1,-1,-1,-1,-1,-1],"split_conditions":[6.5E0,1.78025E1,2.05E1,1.4015E1,3.0682499E1,1.55E1,2.25E1,1.02275E1,5.5E0,5.5E0,5.5E0,8.5E0,2.38625E1,2.4619999E1,3.37125E1,5.5E0,4.5E0,1.5E0,1.7045E1,1.5E0,2.159E1,3.37125E1,3.37125E1,7.5E0,3.2955E1,1.85E1,1.85E1,2.15E1,2.15E1,1.62875E1,-7.2342377E0,-2.192984E0,-7.975582E-1,-2.0796995E0,-3.570029E0,-3.684344E0,-5.4984584E0,